#Parameter# /_1 {211,24} 81025 ZERO_GRAD
-2.97557878e+00 -1.80691814e+00 +3.34503621e-01 +3.28249812e+00 +1.43850541e+00 -2.38717318e+00 -3.21635604e-02 -1.41783667e+00 +3.91117024e+00 -1.20627010e+00 -1.84305978e+00 -8.87422740e-01 -2.61852354e-01 +1.39777470e+00 -3.72348614e-02 -1.23354308e-01 -1.27402917e-01 -6.52945414e-02 -1.40476122e-01 +1.99228954e-02 -1.58426315e-01 +8.80647004e-02 +3.02502010e-02 +1.08538836e-01 +2.51299858e+00 -1.58911598e+00 -1.47709250e-01 -1.96464032e-01 -6.01302099e+00 -2.19050431e+00 -3.41471338e+00 +5.80531597e-01 -2.77340766e-02 -1.42707038e+00 -2.75805283e+00 +4.68464327e+00 -1.98163319e+00 -8.86497378e-01 +4.07514238e+00 +1.80279762e-01 -3.66228968e-01 -2.43967865e-02 -2.54683995e+00 +5.46294510e-01 -1.31152228e-01 +1.82544661e+00 -1.80327761e+00 -5.25458276e-01 -8.11994791e-01 -3.63504028e+00 -2.97045183e+00 +4.79739380e+00 +3.04252100e+00 -4.39250088e+00 +8.49457458e-02 +3.55904818e+00 -5.99785671e-02 -9.31875035e-02 -3.41875100e+00 -9.00844112e-02 -1.71358898e-01 -4.34908457e-02 -2.06118792e-01 +2.62979174e+00 -4.39341843e-01 -2.53751963e-01 +2.93665171e+00 -1.06398952e+00 -4.30380392e+00 +3.50035205e-02 -1.02119744e-01 -3.73823929e+00 -1.93188548e-01 -1.69575977e+00 -6.90751821e-02 +1.42428803e+00 +2.91487193e+00 -2.13215160e+00 -2.40960509e-01 +1.49174789e-02 +1.25972235e+00 +6.15921640e+00 -1.62455395e-01 -4.85153757e-02 -2.10107595e-01 +2.56303787e+00 -1.15242958e+00 -1.92687720e-01 +1.01828432e+00 +1.32507443e+00 +5.31497240e+00 -2.01154399e+00 +2.46225524e+00 -2.97784984e-01 +2.84147453e+00 -2.86702347e+00 -1.23161161e+00 -1.90958649e-01 -2.99421525e+00 -2.24464044e-01 -4.20740247e-02 -1.09156176e-01 -1.53999865e-01 -3.75842489e-02 +2.38417789e-01 +4.44495249e+00 +3.07161593e+00 -1.96193699e-02 -7.26356030e-01 -1.20408274e-01 +1.71997130e-01 -2.11667955e-01 -2.73132622e-01 -7.10763410e-02 +1.29223898e-01 -2.49616534e-01 -1.32639706e+00 -1.35832921e-01 -1.23448682e+00 -1.55948675e+00 -3.17502022e-02 -3.20317960e+00 +4.44486856e+00 +2.26175964e-01 -1.65628642e-01 +1.39022470e-01 -8.36973190e-02 -1.89201474e+00 +7.36331761e-01 +3.40971494e+00 +4.40548706e+00 +2.55876243e-01 +3.18988673e-02 -9.68283638e-02 +2.40385008e+00 -5.40790483e-02 +7.18649149e+00 -2.46654582e+00 -1.79260373e+00 -6.02591448e-02 -2.27800161e-01 -1.82183430e-01 -1.03294142e-01 +1.01227742e-02 -2.32821718e-01 -6.50813431e-02 -2.51372270e-02 -2.49854684e+00 -1.17718667e-01 +5.47775626e-02 +3.81142068e+00 -6.74832910e-02 -6.22830875e-02 -1.09358919e+00 -1.65679663e-01 +1.44611943e+00 +3.08434039e-01 +3.30971301e-01 +5.55300236e+00 -1.21313429e+00 +1.90389371e+00 +2.55450487e+00 -1.47604078e-01 +1.20705521e+00 -2.05469325e-01 -2.21265054e+00 +5.02407694e+00 -6.63817897e-02 -6.02857733e+00 -1.47023678e-01 -4.60645580e+00 -1.11626811e-01 +5.81169248e-01 -1.62023410e-01 +3.55756211e+00 -2.46775079e+00 -2.38745406e-01 -1.25033319e-01 -7.51212716e-01 -2.33027488e-01 -1.77126437e-01 -8.95822763e-01 -2.70377398e+00 -1.70662075e-01 +2.68167782e+00 -6.39189720e-01 +3.17479396e+00 +2.77309942e+00 +4.62913513e+00 -2.42622316e-01 -2.31393147e+00 +1.34463239e+00 +3.73911113e-02 -1.30128220e-01 -4.09332466e+00 -1.23185897e+00 +3.91397786e+00 -4.62402888e-02 -1.16101824e-01 -1.01502515e-01 -1.40326664e-01 -2.76571846e+00 -1.22452712e+00 +3.91491383e-01 +5.49715124e-02 -5.76301618e-03 -2.39286169e-01 -5.76785707e+00 -1.30991340e-01 +2.27726126e+00 -3.83811688e+00 +2.75745893e+00 +6.53688848e-01 +6.94601014e-02 -1.06626606e+01 -6.90467775e-01 +2.90937757e+00 +2.82161776e-02 +1.62984654e-01 +8.58291686e-01 +3.82655978e-01 +4.53114122e-01 -1.19268209e-01 +7.31433108e-02 -1.61156431e-01 +9.48104262e-02 +3.56460586e-02 +5.58528816e-03 +1.05769590e-01 +1.74070939e-01 +2.63093086e-03 +2.05098480e-01 +1.75180689e-01 +6.42507002e-02 +4.28443462e-01 -6.76475191e+00 +1.67987004e-01 +1.78754136e-01 +4.83212285e-02 -4.15698797e-01 -6.89227760e-01 +5.84996521e-01 +9.04839814e-01 +2.03999907e-01 +3.50070179e-01 +6.32657707e-01 +3.23800421e+00 +8.21012020e+00 +4.64923286e+00 +1.34124625e+00 +4.36037540e+00 +2.20127523e-01 +3.54143716e-02 +2.59639692e+00 +3.10123451e-02 +1.32483035e-01 -1.01865301e+01 +4.30233449e-01 +2.18864322e-01 +3.35983872e-01 -8.42598724e+00 +1.68510973e+00 +6.06959248e+00 -5.85770369e-01 +1.05635953e+00 +5.63578717e-02 -5.93050003e+00 +6.22373931e-02 +1.04509898e-01 +1.06816304e+00 +8.08497071e-02 +2.36484945e-01 -5.44884242e-03 -2.02204585e-02 -6.20605087e+00 +2.18799472e-01 -1.62588749e-02 +4.37238812e-01 +5.87212801e-01 +1.33369720e+00 -1.12042546e-01 -3.81316580e-02 +3.87675500e+00 -7.35594407e-02 -2.69649816e+00 +5.11585250e-02 +3.58161241e-01 +2.79832482e+00 +3.97654444e-01 +2.33658813e-02 +3.80191095e-02 +1.01713635e-01 -3.31050825e+00 +1.41269848e-01 +1.99420318e-01 -4.75939326e-02 +1.88868570e+00 +6.43593550e-01 +2.45092213e-01 +2.53481455e-02 -9.31816250e-02 +2.22910953e+00 +6.54074013e-01 +1.22643828e+00 +1.24807850e-01 -1.31203337e+01 +2.50299883e+00 +6.61221743e-01 +6.62594885e-02 +2.20223761e+00 +2.60209963e-02 +2.12199148e-02 +5.40463477e-02 -1.27816820e+01 +1.03151090e-01 +1.71380743e-01 -4.22240913e-01 +6.40970051e-01 +5.36901876e-02 +2.84207940e-01 +5.15874960e-02 -2.96603471e-01 +1.39123395e-01 +5.55684119e-02 +1.80374026e-01 +1.52361453e-01 +1.83788180e-01 +5.03780901e-01 +1.90549076e-01 +2.46616006e-01 +3.09051037e+00 -2.88064443e-02 +1.35508204e+00 +1.39519405e+00 +1.46961704e-01 -9.71405825e-04 +5.12225367e-02 +7.59895369e-02 +3.69226187e-01 +6.50321901e-01 +1.41517091e+00 +1.51389992e+00 +2.67863199e-02 -2.70810816e-03 +1.13948487e-01 +3.34940767e+00 +1.37110561e-01 +3.03161097e+00 -7.66935635e+00 +2.97314858e+00 +1.92360908e-01 +2.45815754e-01 -4.11760136e-02 +3.82761587e-03 -6.88051805e-02 +9.17763487e-02 +1.31318092e-01 +7.93393925e-02 -9.84368992e+00 +4.19034474e-02 +1.38377398e-01 +7.91880429e-01 -3.41592394e-02 +1.04996048e-01 +2.30424255e-01 -5.85523024e-02 -9.64285183e+00 +1.04181015e+00 +6.62253648e-02 +5.69938898e+00 +3.18453819e-01 -6.98572683e+00 +3.65577817e-01 +2.33137578e-01 +2.23192358e+00 +2.45380998e-01 +1.13454489e-02 +2.35749102e+00 +2.41352364e-01 +4.99450588e+00 +1.23390950e-01 +9.93372023e-01 +1.72774568e-01 +2.49695946e-02 +1.62035659e-01 +3.53540802e+00 +1.59762692e+00 +1.57351628e-01 +1.62316617e-02 +8.91751528e-01 +5.49366027e-02 +1.40861224e-03 +1.65125862e-01 +3.08916688e-01 +5.66373393e-02 -3.34301257e+00 +2.04230642e+00 -6.66025543e+00 +1.35549438e+00 +7.46383238e+00 +1.36106014e-01 +4.72766924e+00 -7.68162251e+00 -1.02693401e-01 +2.15037465e-01 +4.16869432e-01 +2.49298453e+00 -4.20044184e+00 +5.53810876e-03 +1.68497801e-01 +2.48815015e-01 +3.29726227e-02 +6.97361052e-01 +1.84610212e+00 +1.37530625e-01 +1.27788186e-01 +2.16565877e-01 +2.95368344e-01 +1.21126390e+00 -5.94935846e-03 +1.04092693e+00 -7.92351294e+00 +9.62811351e-01 +2.15398955e+00 -2.34708890e-01 -2.35043931e+00 +3.82635164e+00 -1.70235559e-01 -1.35624027e+00 +2.43592381e+00 +3.97237492e+00 +2.06418896e+00 -7.32574344e-01 +3.11167336e+00 -4.22159359e-02 +4.03417468e-01 +5.23367599e-02 +1.25445783e-01 -1.22307390e-02 +2.17229262e-01 -4.88730669e-01 -6.71015978e-02 -1.16147652e-01 +1.74219951e-01 +1.40185729e-01 -1.83093464e+00 +3.87703490e+00 -1.53324819e+00 -6.11354291e-01 -3.50541882e-02 +2.72343445e+00 -3.24379635e+00 +3.94626546e+00 +3.90078568e+00 +1.28153488e-01 +3.44895077e+00 +2.17752624e+00 +3.00209260e+00 +3.59493971e+00 -3.42669296e+00 -8.67630768e+00 +3.34931874e+00 -2.24243689e+00 -4.44740266e-01 -3.79091454e+00 -2.28321528e+00 +7.40888119e-02 +3.84238029e+00 -3.43967080e+00 -7.32697129e-01 -3.11856699e+00 +3.24935102e+00 -3.26375031e+00 -4.21546173e+00 +2.20364571e+00 +1.87913525e+00 -1.95394769e-01 -1.36967456e+00 -1.65211523e+00 +1.12452522e-01 -2.03234625e+00 +1.84003353e-01 +2.36814208e-02 -3.96000855e-02 +1.76306546e-01 -5.29951239e+00 +6.28100336e-01 +1.56807214e-01 -2.94337153e+00 +5.18721390e+00 -2.68237948e+00 -1.89750805e-01 +1.10766426e-01 -1.04448473e+00 -6.14784053e-03 +2.79724264e+00 +1.98655427e-01 -2.09906101e+00 -4.75853014e+00 +6.39242458e+00 -1.33394480e-01 +1.25967994e-01 -3.40590179e-01 -2.50638962e+00 -1.33513585e-01 -3.04986626e-01 -2.54210323e-01 +1.28520119e+00 -3.91836095e+00 -2.27182686e-01 -1.23507583e+00 +6.53989363e+00 -2.08924279e-01 +1.64990151e+00 +1.77948272e+00 +2.11569279e-01 +1.17522068e-01 -8.73603344e-01 +2.20139599e+00 -1.07844733e-01 -1.37651110e+00 +5.00245020e-02 -1.09289654e-01 +6.28400594e-02 -4.35200393e-01 -4.64782976e-02 +1.31923137e-02 -3.47717500e+00 +2.37648940e+00 -1.44595532e-02 -2.11868572e+00 +1.08334370e-01 -4.67995346e-01 +3.87281477e-02 +2.95809824e-02 -7.85017982e-02 -4.48696941e-01 -4.08260413e-02 +3.49234056e+00 +6.88558221e-02 -5.42377710e+00 +3.19035411e+00 +3.49983200e-02 -3.81862593e+00 +2.23853493e+00 -2.33563274e-01 +1.26663417e-01 -7.18422681e-02 -1.99103057e-02 +1.85441172e+00 +4.18918766e-02 -4.82650375e+00 +2.84269309e+00 -1.06236421e-01 +1.18157797e-01 +9.61430222e-02 -2.93589139e+00 -4.28947574e-03 +2.72806311e+00 +3.15425920e+00 +1.92602491e+00 -7.48787727e-03 -3.16062607e-02 -1.42485172e-01 +1.58923090e-01 +5.15749790e-02 -1.67566538e-01 -1.43329307e-01 -2.14671388e-01 -7.82033980e-01 -1.07422866e-01 -4.25352044e-02 -4.41232300e+00 +6.57018945e-02 -1.66372098e-02 -2.59398651e+00 +2.29390919e-01 +3.55917525e+00 -5.49033022e+00 -6.27249539e-01 +1.48082530e+00 -6.00221682e+00 -1.73980162e-01 +2.35363483e+00 +1.91006646e-01 -1.66522229e+00 +1.87250897e-01 +2.19237351e+00 -3.80423021e+00 +1.21709324e-01 +1.65370405e+00 +1.84380785e-01 +5.58913040e+00 -3.09665829e-01 -2.44737014e-01 +1.98967114e-01 +1.12867594e+00 -2.81633186e+00 +9.23339427e-02 +1.99577630e-01 +2.52483296e+00 -6.21828511e-02 +4.81148101e-02 +1.02824461e+00 +3.18133473e+00 +1.69881016e-01 -2.71747971e+00 +3.58644056e+00 +2.33986974e+00 -1.34850788e+00 -1.96881127e+00 +1.32249072e-01 +2.44282889e+00 -4.81119776e+00 -3.29773247e-01 +1.05357856e-01 -4.78152227e+00 +2.63391185e+00 +2.57510829e+00 -1.34911343e-01 +7.16798427e-03 -2.55756471e-02 -3.52768362e-01 -6.06289530e+00 +3.24323678e+00 -1.01822519e+00 +4.88608479e-02 +9.19987559e-02 -3.63090247e-01 +4.56715852e-01 -1.54456710e-02 +3.41074967e+00 +8.99871230e-01 -2.71714473e+00 +4.66187620e+00 +5.43132007e-01 -5.85778570e+00 -3.59758162e+00 +2.64667416e+00 +1.51734042e+00 +1.59863794e+00 +3.33864355e+00 +1.76843357e+00 +2.69732690e+00 -3.33218479e+00 -1.11426137e-01 +1.96927011e-01 -2.15101928e-01 -1.41066313e-02 -1.62891567e-01 -2.22727641e-01 +5.19827664e-01 +7.31021613e-02 +1.13201141e-01 +3.65277678e-02 -2.34315231e-01 +1.83749771e+00 -2.55563378e+00 -1.32208228e+00 +1.88544080e-01 +8.19459677e-01 -5.90611219e+00 -2.85903001e+00 -6.31726837e+00 +3.60477805e+00 -1.34914905e-01 +4.52215004e+00 +2.49805522e+00 -1.13768029e+00 +2.85658650e-02 -5.04028893e+00 -7.71488488e-01 +9.09817696e+00 -4.18056995e-01 -1.44180574e-03 +6.76530218e+00 +3.67262185e-01 -1.62062407e-01 +1.42521751e+00 -1.03102997e-01 +1.78948247e+00 +1.04730356e+00 -1.37511241e+00 -7.80222797e+00 -3.30816674e+00 +1.96214283e+00 -2.02345181e+00 +1.36181772e+00 +2.89785957e+00 +1.50013077e+00 -2.19536483e-01 -5.26093388e+00 +7.39045665e-02 -8.18323717e-02 -8.51512551e-02 -1.50040528e-02 +1.22902870e+00 +2.45739698e+00 -8.62061158e-02 -3.38967323e+00 +6.27154827e-01 +2.25195915e-01 -6.34553507e-02 -2.98828214e-01 -6.22080900e-02 +6.10656738e-02 +4.54900837e+00 -1.48969635e-01 +1.20740342e+00 -2.55563474e+00 -3.82213783e+00 -2.69723684e-01 -7.15752020e-02 +2.31775546e+00 -1.69861805e+00 -2.44649157e-01 +9.63490307e-02 +4.14681919e-02 +4.43540621e+00 +1.84257960e+00 -1.50193781e-01 -7.25672767e-02 +1.03462715e+01 -5.74441338e+00 -1.93563902e+00 +4.82562208e+00 +1.68539083e+00 +1.34710228e+00 -5.94386482e+00 +2.33318400e+00 -2.14176308e-02 +3.95996618e+00 +7.37970293e-01 +3.31910849e-02 -1.40685722e-01 -4.09353971e+00 +2.56137609e-01 -8.14908091e-03 -3.62771702e+00 +2.89453673e+00 +1.11772995e-02 +1.56000602e+00 -2.50147253e-01 -2.20313489e-01 -1.97949052e-01 -2.70903736e-01 +9.34882224e-01 +9.79484499e-01 +3.99924815e-02 -3.44481325e+00 -1.25699788e-01 +9.87633392e-02 -2.32353598e-01 -1.83444936e-02 -3.41205806e-01 +5.09692717e+00 +1.95809364e-01 -9.67882872e-02 +1.96477145e-01 -2.67821923e-03 +2.25199771e+00 +1.14976323e+00 +2.35544872e+00 -2.19266582e+00 +4.55578595e-01 +2.70372117e-03 -8.91816989e-02 +1.88478971e+00 -2.81885773e-01 -6.75112724e-01 +2.15291715e+00 +2.33207059e+00 -2.04524696e-01 -4.37084287e-02 +7.49987885e-02 -1.54623792e-01 -1.77738249e-01 +2.53492624e-01 +1.67624652e-01 +4.18437660e-01 -4.55929470e+00 +3.36866081e-01 +2.01069951e-01 +7.88964450e-01 +3.97436768e-02 -2.44102284e-01 -7.83758342e-01 -6.40569478e-02 -2.61281872e+00 +5.34005022e+00 +1.22983444e+00 -2.16281724e+00 -3.35169888e+00 -3.03626394e+00 +3.98225474e+00 -1.77093572e-03 +3.08224821e+00 -3.50181237e-02 +2.24552846e+00 -4.99869871e+00 -2.27472380e-01 -4.73751879e+00 +1.23328622e-02 -1.90933788e+00 +3.24585378e-01 +6.90669656e-01 +1.32890334e-02 -5.06719398e+00 -4.28385019e+00 +2.51131445e-01 -3.83374356e-02 -3.66253614e+00 +2.05040742e-02 -1.47759095e-01 +1.12081182e+00 +7.02647257e+00 +3.18094976e-02 -1.90798461e+00 -6.74609363e-01 +3.09334660e+00 -2.22691655e+00 -5.67947531e+00 -4.31023873e-02 +1.03398252e+00 -4.74310541e+00 +2.97038704e-01 -2.63275411e-02 -5.01691389e+00 +4.93347597e+00 +2.98491216e+00 -1.87277734e-01 +9.76412930e-03 -2.16504857e-02 +9.28093910e-01 +2.38624501e+00 -6.41765070e+00 +2.87041128e-01 -1.13833718e-01 -1.83832534e-02 +2.13990211e+00 +3.47806072e+00 -7.97496140e-02 -6.54051638e+00 +3.51516438e+00 +4.04161358e+00 -1.61987925e+00 +9.79489461e-02 -1.77221274e+00 +1.57788420e+00 -4.50167465e+00 -1.65430498e+00 +2.45914650e+00 -5.61935902e+00 -8.59762490e-01 +1.01354825e+00 +3.89463902e+00 -7.57519621e-03 +6.53706372e-01 +1.40947267e-01 -4.68556322e-02 +1.50355205e-01 +1.93165049e-01 +1.44156009e-01 -5.71933500e-02 +1.52510166e-01 +4.80730347e-02 +1.11526549e-02 -1.58170879e+00 +2.29192591e+00 -1.53527713e+00 -4.97770131e-01 -3.64291593e-02 -6.53824377e+00 -5.49229431e+00 +4.34059620e+00 -5.69646215e+00 +1.68580502e-01 -5.52985573e+00 -4.79687262e+00 -7.09098196e+00 -4.91002321e+00 -6.01655865e+00 +1.63627613e+00 +3.72045088e+00 +3.37687016e-01 -7.99398944e-02 -5.47117376e+00 -1.76087582e+00 +1.77913845e-01 +6.54714823e+00 +2.40465879e+00 +7.14154184e-01 +1.39670864e-01 +6.56651115e+00 +6.63954258e+00 +4.95086479e+00 -4.35697174e+00 -4.58930779e+00 -2.09896028e-01 +7.01914358e+00 -1.71412039e+00 +8.02803710e-02 -6.66267347e+00 +1.99512079e-01 +2.24696130e-01 +1.68092266e-01 +5.48049025e-02 -5.21285582e+00 +8.46317828e-01 +3.69283184e-02 +4.49024296e+00 +1.81824219e+00 -5.16234446e+00 -9.11699757e-02 +5.12320511e-02 +8.83774948e+00 -6.20640293e-02 +7.67845821e+00 +1.76786095e-01 +1.92425740e+00 +1.46453276e-01 +4.63163424e+00 +1.62681623e-03 +1.36690781e-01 -6.37183011e-01 +1.22704780e+00 -8.11646879e-03 +4.09480892e-02 +1.25904873e-01 +1.08029830e+00 +1.59371996e+00 +2.29359746e-01 -8.84723589e-02 +7.37444687e+00 +2.49709320e+00 +7.94747472e-01 +1.12982690e+00 -7.95518383e-02 +1.69688714e+00 +6.15446424e+00 -4.59869480e+00 -1.66817620e-01 -6.75573969e+00 +1.42670020e-01 +1.07229881e-01 +1.26871973e-01 -3.40214920e+00 -5.34227788e-02 +3.49727497e-02 -3.26398706e+00 +1.55821908e+00 -2.96772383e-02 +7.37699866e-01 +1.72832102e-01 -2.33241037e-01 +7.96812251e-02 -3.64346541e-02 +4.75598834e-02 -4.95369323e-02 +2.05687329e-01 +1.70162189e+00 +2.22594410e-01 +7.81377077e-01 +3.94581628e+00 +2.33804032e-01 -1.75592279e+00 +3.46944523e+00 -1.12364888e-01 +1.50200456e-01 -4.24645066e-01 +1.65650219e-01 +1.89832926e+00 -3.09573293e+00 -5.94805002e+00 +1.93588626e+00 +8.76447707e-02 +6.41005784e-02 -4.40715365e-02 -6.83435869e+00 +2.40676366e-02 +5.05534506e+00 -6.02835655e+00 +4.47351694e+00 +9.53619629e-02 +8.13845024e-02 -4.03926615e-03 +1.00246266e-01 -8.55624974e-02 +1.29288644e-01 -2.98448443e-01 +1.65669426e-01 -4.53537798e+00 -6.92495346e-01 -1.13650318e-02 -2.67311263e+00 -2.89280504e-01 +2.12655246e-01 +4.13990647e-01 +1.39809586e-02 +3.99631763e+00 -6.59495544e+00 -5.88721260e-02 +3.62741852e+00 +4.35756159e+00 -3.13575459e+00 +2.79278708e+00 +1.46055087e-01 +3.30835795e+00 +1.29034102e-01 -4.95519066e+00 +6.84941769e+00 +5.37899472e-02 -6.71375513e+00 +9.18529648e-03 +1.83816242e+00 -2.38136858e-01 -9.75060463e-02 +2.38036305e-01 +4.64210415e+00 -4.76359749e+00 -9.08639133e-02 +1.45915568e-01 +2.01664901e+00 +1.63494512e-01 +4.81781736e-02 +2.53928804e+00 +4.87141609e+00 +2.20675632e-01 +2.15450096e+00 +3.31896758e+00 -4.59053707e+00 -4.51855135e+00 -6.10420799e+00 +7.15327188e-02 +4.24308872e+00 +1.91367936e+00 +1.27612606e-01 +4.16586064e-02 +3.40436268e+00 -1.33927822e+00 -5.43240166e+00 +1.55363411e-01 +4.60461108e-03 +6.49808273e-02 +1.24542117e-01 -4.65172958e+00 +3.14401698e+00 -3.24294150e-01 +2.15944380e-01 -4.16203253e-02 -6.29915744e-02 -9.19748592e+00 +2.29242835e-02 +9.22066975e+00 -2.13568473e+00 +2.99204874e+00 +3.53668451e+00 +1.26386964e+00 -1.19696534e+00 -3.98269320e+00 -5.69576073e+00 +9.92876470e-01 +3.22580314e+00 +2.60373735e+00 +1.66595018e+00 +2.73018384e+00 +4.20340395e+00 -3.70527357e-02 -1.17294383e+00 +1.55083032e-03 +8.20770860e-04 -8.55257139e-02 -1.56363949e-01 +1.58332437e-01 +5.67336977e-02 -5.13728745e-02 +3.48233968e-01 +1.58154555e-02 +1.09783971e+00 -6.60664988e+00 +1.92997074e+00 +1.04152334e+00 +3.18501979e-01 +3.76663136e+00 +6.19297981e-01 +2.66800189e+00 -1.02101481e+00 -1.98124349e-01 -3.81895036e-01 +2.30392241e+00 +8.68156970e-01 +3.43881869e+00 +2.83409429e+00 -4.66381502e+00 -7.90012693e+00 +3.22129220e-01 +1.00179052e+00 +3.78588963e+00 +6.06539130e-01 -1.40205353e-01 -5.55048084e+00 +9.11330521e-01 +2.04783392e+00 +2.41305089e+00 +4.28329229e+00 -1.65407753e+00 +2.71498275e+00 -4.54998922e+00 +1.83209911e-01 +5.25743902e-01 -5.54769135e+00 +2.43278295e-01 -1.44324183e-01 +6.23415709e-01 -1.10958256e-01 +1.10239930e-01 -1.69984236e-01 -5.77338897e-02 -9.34445763e+00 +1.14591527e+00 +1.05963945e-01 +4.02532959e+00 +4.09864092e+00 +4.24318790e+00 -9.16751549e-02 -2.42672846e-01 -4.95181894e+00 +5.86488284e-02 +3.62226653e+00 -1.46406531e-01 -3.89613485e+00 -3.33359432e+00 +2.71574426e+00 -1.14043295e-01 -2.34833248e-02 +7.70530820e-01 -4.69384766e+00 +1.22601680e-01 +1.09527729e-01 -9.35211703e-02 -4.31433010e+00 -2.97978830e+00 +1.40121013e-01 +6.50159240e-01 -7.60136366e+00 -1.60216475e+00 +4.79175508e-01 -5.70576429e+00 +1.10927582e+00 -4.87179470e+00 +1.33245313e+00 +1.17029297e+00 +3.21461946e-01 -6.13668013e+00 +4.82558548e-01 +1.02990746e-01 -1.94537669e-01 +1.25821626e+00 +1.71702027e-01 +2.97360998e-02 +3.63563919e+00 +2.81177759e+00 +3.46267745e-02 +1.82546449e+00 +3.11682164e-03 +2.59703070e-01 +6.18062280e-02 +1.24398731e-01 +1.09643495e+00 +2.87427217e-01 -6.16323575e-02 +3.68992424e+00 -1.71472758e-01 +5.14281797e+00 -5.96858072e+00 -1.44611550e-02 +3.42121243e+00 -5.57128096e+00 +1.48519292e-01 -1.01673201e-01 +1.03841507e+00 -6.09519184e-02 +2.71811843e+00 -2.83079505e-01 -3.71456504e+00 -6.98151302e+00 +6.22176826e-01 -3.75737585e-02 -1.67109951e-01 +1.27658534e+00 -1.05382584e-01 +3.40188336e+00 +2.94678974e+00 +3.40284085e+00 +1.14980806e-02 +1.57565286e-04 -3.08560301e-02 +8.71151424e-05 +1.56050637e-01 +6.01617470e-02 +2.57551134e-01 +1.39536280e-02 +2.80088973e+00 +2.64962792e-01 +2.12036192e-01 +8.68638754e-01 +1.27281582e+00 -7.68349681e-04 +1.40926957e+00 -2.35406741e-01 +2.94713449e+00 -3.43485951e+00 +7.53353357e-01 -4.00878382e+00 +2.10104451e-01 +2.57462835e+00 +2.25264621e+00 +1.03570521e-01 -6.84021902e+00 +1.66916564e-01 +3.39057565e+00 -1.64626908e+00 +1.28312185e-01 +1.32418203e+00 -6.66157976e-02 +5.27123988e-01 +4.68902230e-01 +7.94308424e-01 -6.29241765e-02 -4.17035961e+00 +2.59369874e+00 +1.45973071e-01 -1.92896664e-01 +4.26589537e+00 -2.21905649e-01 +5.05490154e-02 +2.88416219e+00 +4.11753273e+00 -7.61701594e-05 -5.23604918e+00 -7.61685514e+00 +3.35831451e+00 +1.24041224e+00 +1.84168363e+00 -2.08439499e-01 -8.51744461e+00 -5.24225855e+00 +2.77669370e-01 -7.60941505e-02 +2.69493294e+00 +4.40403986e+00 -5.06430101e+00 -6.99272566e-03 +6.99598789e-02 -1.42093047e-01 +2.55003810e-01 +3.55770874e+00 +5.23615551e+00 +1.17965245e+00 -9.29004848e-02 +2.60913651e-02 +1.05535257e+00 +4.12591267e+00 +1.63540781e-01 +2.86370063e+00 -8.37554073e+00 +2.08970737e+00 -1.11077122e-01 +1.11066055e+00 -6.08983707e+00 +3.11724949e+00 -4.12873936e+00 -5.82858682e-01 +1.28052139e+00 +7.67371356e-01 +1.29613447e+00 +1.33678675e+00 +1.27136099e+00 +1.08032905e-01 +2.33674431e+00 +1.47029921e-01 +2.53450215e-01 +2.56753955e-02 -1.94175988e-02 -3.24916571e-01 +1.43175916e-04 -1.70053691e-02 +4.97608155e-01 -7.98752904e-02 +9.28296804e-01 +3.57517385e+00 -4.39210355e-01 +3.06448072e-01 -1.57724097e-01 -7.32699811e-01 +2.89180374e+00 +4.51406622e+00 +3.02394772e+00 -9.59277302e-02 +2.48473501e+00 +2.06053948e+00 +4.26208305e+00 +3.82300997e+00 +4.13672400e+00 -7.01542616e+00 -9.20086288e+00 +1.78264916e+00 +6.89684868e-01 +1.36455274e+00 -2.30597711e+00 -2.00982485e-02 -8.82237816e+00 +1.00049913e+00 +1.63385928e+00 +1.82841390e-01 +2.40774727e+00 -8.15713501e+00 +1.07397985e+00 +2.37197590e+00 +5.64891386e+00 -1.36388206e+00 +4.74114704e+00 +1.21028149e+00 +3.99165526e-02 +2.02361870e+00 +1.52557731e-01 +3.67234573e-02 +5.50033264e-02 +1.30532667e-01 -7.52672577e+00 +2.00550580e+00 -7.06016943e-02 -4.30688524e+00 -7.30923271e+00 +3.36847639e+00 +6.37655752e-03 -1.15759552e-01 -5.24166489e+00 -8.03471133e-02 +4.14627552e+00 -1.35588378e-01 +1.87455249e+00 -5.30277634e+00 +1.68645954e+00 -8.27251747e-02 -8.57494846e-02 +1.20570922e+00 -1.77540863e+00 +8.63774642e-02 +3.67581248e-01 -4.09735292e-02 -6.49420023e+00 +2.04356098e+00 +4.44205590e-02 +1.07026212e-01 -6.90949297e+00 +5.83097172e+00 +2.44799399e+00 -6.73064804e+00 +1.52022147e+00 -6.28217459e+00 +5.56336832e+00 -4.78375292e+00 +4.10679519e-01 -3.61322999e+00 +9.02294815e-01 +9.76569429e-02 -5.96760102e-02 +2.58786535e+00 -1.03881666e-02 +4.07000273e-01 -8.73887360e-01 +4.30765837e-01 +1.42720491e-01 -2.31995058e+00 +7.65254721e-02 +3.67449552e-01 +1.19354419e-01 -1.01167209e-01 +1.03942692e+00 +1.37829494e+00 +2.92694997e-02 +2.74755454e+00 +9.91260353e-03 -5.60280371e+00 +2.05602932e+00 +5.71865290e-02 +2.35156822e+00 +6.91685796e-01 +5.98171651e-01 +7.83238411e-02 +1.67001367e+00 +9.00112465e-02 +2.00286651e+00 +1.27606869e-01 +2.60437202e+00 +4.65515804e+00 +6.99457288e-01 +1.22749664e-01 -2.22437214e-02 -2.22883582e+00 -1.37512594e-01 +5.80251217e+00 +4.50268316e+00 +1.52575231e+00 -5.12186363e-02 -2.04983559e-02 +1.29530236e-01 +3.17706354e-02 +2.54837871e-01 +5.09971738e-01 +2.26507425e-01 -5.23719549e-01 +2.64495492e+00 +3.02231461e-01 +4.09378737e-01 +1.34636521e-01 +1.65830970e-01 +4.99266423e-02 +1.22813737e+00 +1.60791114e-01 +2.52748108e+00 -4.50969839e+00 +9.34206367e-01 -7.07519054e+00 -2.62328506e-01 +5.03237057e+00 +1.19906473e+00 +1.89752251e-01 +3.07616782e+00 +3.90613377e-02 -6.62006760e+00 +1.84752774e+00 +4.16219980e-02 -3.18209261e-01 -1.29302695e-01 +2.55210638e+00 +8.59374832e-03 +9.13475573e-01 -8.72256011e-02 -9.52491093e+00 -6.60490561e+00 +3.10368612e-02 -1.27251029e-01 +3.59958124e+00 -4.76143062e-02 -1.39285937e-01 +3.02907968e+00 +3.38240480e+00 +1.51243657e-01 -2.46140504e+00 +5.38479900e+00 -6.50268650e+00 +1.38314021e+00 -1.11850796e+01 +2.64558233e-02 +3.36757612e+00 +1.83744395e+00 +2.71934360e-01 -2.28102475e-01 +2.60778737e+00 +2.96177775e-01 +2.81214893e-01 -3.27417813e-02 +2.16620024e-02 +9.10553113e-02 -8.34540054e-02 -2.66022873e+00 +2.74231720e+00 +8.06219280e-01 +1.23734437e-01 -4.77333739e-03 -2.42682076e+00 -1.26690884e+01 +1.87242821e-01 -8.73176634e-01 +2.82796597e+00 -3.11002159e+00 -2.56242704e+00 +1.78425044e-01 -5.05763865e+00 +6.57658911e+00 +1.07122362e+00 +2.60436237e-01 -4.18197155e+00 -2.17570662e+00 +2.82481980e+00 +4.25203991e+00 -4.03458405e+00 +2.25954264e-01 -1.61555016e+00 +2.10980307e-02 -2.08419129e-01 +1.87540129e-01 +2.82871313e-02 +1.96227074e-01 -3.72481719e-02 +2.47480690e-01 -4.36737686e-01 +2.12525487e-01 -1.08910203e+00 -3.54840946e+00 -2.71322036e+00 -7.32662380e-02 -4.57069464e-02 +8.32440186e+00 -1.86245203e+00 +4.33244276e+00 -1.47048140e+00 +1.13121852e-01 +3.66777039e+00 +3.32941127e+00 -3.46706104e+00 +4.26168251e+00 -6.31652594e+00 +5.24691057e+00 +4.58533144e+00 +1.08372402e+00 +4.22168002e-02 +4.32916737e+00 +3.90331656e-01 -5.90703916e-03 +6.61904573e+00 -1.89001381e+00 +1.62736094e+00 +3.06339383e+00 +2.19734883e+00 +3.92286277e+00 -3.46092534e+00 +2.50450993e+00 -6.78733206e+00 +5.51584475e-02 -3.97449517e+00 -1.29193163e+00 -1.46639179e-02 -2.99388242e+00 +1.05695635e-01 +2.11275101e-01 +1.48310110e-01 +2.10567668e-01 -5.89440298e+00 +1.86266732e+00 +1.93465948e-01 -4.01096392e+00 +2.81550097e+00 +7.31674004e+00 +1.07605591e-01 +6.98626339e-02 +2.16692019e+00 +1.66307241e-01 +3.46071053e+00 -6.20177053e-02 -2.80016899e+00 +4.84528112e+00 -2.37629843e+00 +3.70791517e-02 +5.36205247e-02 -1.92624521e+00 -3.93119478e+00 -1.42750949e-01 -3.28585356e-01 +7.90497586e-02 +1.37501800e+00 +4.35318142e-01 -1.05713062e-01 -1.43225253e-01 +2.56744599e+00 -2.73965073e+00 +3.21368480e+00 +3.57354379e+00 -4.38410006e-02 -3.60450602e+00 +4.79105330e+00 +1.87271929e+00 -2.79061705e-01 +2.53180337e+00 +1.83491446e-02 +1.36631429e-01 +1.89853624e-01 -5.50026178e+00 +1.72520474e-01 -3.12434852e-01 -2.08774710e+00 -2.61837125e+00 +2.68275261e-01 +1.96642661e+00 +1.92425951e-01 -2.16876954e-01 +1.50134176e-01 -5.38302399e-02 +1.90812409e-01 -6.03794932e-01 +1.19479284e-01 -5.33005953e+00 +1.29732385e-01 +4.80231714e+00 +6.50647593e+00 -6.66095465e-02 +7.41641188e+00 -5.45975924e+00 -5.21066487e-01 +3.07149142e-02 -1.37328076e+00 +6.64283782e-02 +4.41346312e+00 -2.70470691e+00 -8.48346412e-01 -3.36177182e+00 -6.77388906e-01 +2.14399114e-01 +2.25642592e-01 -4.38953352e+00 +1.80354461e-01 -5.54845762e+00 +5.35681820e+00 +2.56333160e+00 +1.21806353e-01 -2.22503375e-02 +1.21767528e-01 +1.09129228e-01 +2.97882222e-02 -4.94866446e-03 -3.94234717e-01 +1.11253381e-01 -4.54051405e-01 -9.39637646e-02 -6.40795082e-02 -4.19964981e+00 +3.31600681e-02 +1.77557766e-01 -1.94052505e+00 +3.87266167e-02 -2.82065034e+00 -1.44469059e+00 -1.36625063e+00 -6.78947687e+00 -2.91947556e+00 -3.75383306e+00 -3.32275891e+00 -4.35739122e-02 -5.00389671e+00 +1.99754462e-01 +2.08191013e+00 -4.11043310e+00 +1.61602661e-01 +8.77029228e+00 -7.92889670e-02 +5.50020742e+00 +1.14065550e-01 -1.18842137e+00 +9.30493027e-02 -1.36781807e+01 +3.34131098e+00 +6.90914616e-02 +1.74334303e-01 +4.25488281e+00 +1.01653092e-01 +9.70912501e-02 +3.60599709e+00 +3.79228258e+00 -9.77167860e-02 -3.46636391e+00 +2.83445263e+00 +4.79805613e+00 -2.79993677e+00 -6.04020262e+00 -2.18883026e-02 +4.41601467e+00 -2.95271397e+00 +5.71472310e-02 +8.37695077e-02 -1.74709666e+00 -2.58731151e+00 -3.96312046e+00 +1.72348365e-01 +4.11371095e-03 -1.36131858e-02 +1.34930864e-01 +4.98758745e+00 +4.20346642e+00 -7.99230099e-01 -1.87187493e-02 +1.66544124e-01 +7.67135322e-01 +5.87477922e+00 -5.24170063e-02 -8.95606136e+00 +4.54116964e+00 +5.28619528e+00 -3.95758748e+00 +9.22639132e-01 -7.53244519e-01 +5.73123741e+00 -1.58581901e+00 -9.70466658e-02 +2.22891545e+00 -3.62582207e+00 -2.41633987e+00 -1.12595296e+00 -4.51005554e+00 +9.18933228e-02 -7.87218034e-01 -2.18953326e-01 +4.34762277e-02 -2.12897092e-01 -4.44630571e-02 -4.42531593e-02 -1.92812771e-01 +3.96129035e-04 -1.78342871e-02 -1.99054182e-01 +2.97187001e-01 +3.76375198e+00 +3.44245648e+00 +3.21448624e-01 +1.01518178e+00 +1.16635656e+00 +2.24251747e+00 +4.38526344e+00 +2.48453975e+00 +2.36157216e-02 -2.23333716e+00 -2.17934823e+00 +1.20597792e+00 -2.80228233e+00 -2.47073960e+00 -5.67821789e+00 -1.95864677e+00 +2.10718918e+00 +2.96597809e-01 -2.56433082e+00 -1.81197852e-01 -3.17642242e-01 +2.22470477e-01 +3.70789170e+00 +1.34233677e+00 -1.61720788e+00 -1.20680678e+00 +8.46359253e+00 +5.38584137e+00 -3.67978477e+00 -3.58128047e+00 -3.42399105e-02 -3.26337767e+00 +1.07670164e+00 -7.27936253e-03 -3.05982685e+00 -1.82474211e-01 +1.78119764e-02 -7.68876672e-02 -1.88980401e-01 -2.03147125e+00 -1.17030954e-02 +1.03442110e-02 -3.25830364e+00 -2.63641143e+00 -3.04370332e+00 -2.87632257e-01 -1.15993626e-01 -1.03682137e+00 +1.40533317e-02 -3.36314678e+00 -1.59283265e-01 +3.17599559e+00 -4.92898893e+00 +2.70792174e+00 -5.22536598e-02 -1.78035736e-01 +4.56552207e-02 -3.38761401e+00 -2.10988205e-02 +3.05531055e-01 -1.99989721e-01 -8.78835082e-01 +3.64709759e+00 +1.52742118e-01 +6.51841164e-01 -7.78427720e-01 +1.65525389e+00 -2.51587057e+00 -3.14829278e+00 +1.05513847e+00 +2.47266650e+00 -2.93573046e+00 -1.71963775e+00 +5.96367680e-02 -5.34904897e-01 +8.09632480e-01 -1.70117289e-01 -2.55479187e-01 -3.05967331e+00 +3.61250900e-02 +2.67136872e-01 -5.46118069e+00 +2.48960280e+00 -1.90436333e-01 -1.31583595e+00 -1.93267584e-01 +6.73829317e-02 -1.54116467e-01 -2.81567667e-02 +4.50486451e-01 +1.19596136e+00 -1.04550943e-01 +5.19815922e+00 -2.66937297e-02 -4.15749979e+00 +3.21978045e+00 -9.13226232e-02 +1.87907982e+00 +3.08973813e+00 +3.33252877e-01 -1.53385729e-01 +8.16509545e-01 -9.80856735e-03 +1.99472338e-01 +2.16942024e+00 -1.08435428e+00 +4.53011942e+00 +3.57076377e-01 -2.48798311e-01 -6.05150312e-02 -3.59755683e+00 -1.26016751e-01 +3.94154668e+00 +3.27868253e-01 -1.81965399e+00 -2.43913531e-01 -1.46434829e-01 +1.03036622e-02 -2.64326539e-02 -1.07127570e-01 +1.31401747e-01 +1.66064557e-02 -1.92764103e-01 -3.92627621e+00 -1.27779022e-01 +2.59065539e-01 -3.85619283e+00 +7.25304008e-01 -2.39402249e-01 +2.02143574e+00 -1.40039265e-01 +4.86593723e+00 -3.88976884e+00 +8.82852733e-01 -1.82928002e+00 +5.50144482e+00 -4.73833442e-01 +2.57061664e-02 +5.21309599e-02 -1.70046461e+00 -9.97186676e-02 -1.58311415e+00 +5.16667891e+00 +5.16990237e-02 -1.01604164e+00 +7.55731538e-02 +1.07466497e+01 +3.50787640e-02 +6.47878706e-01 -1.10340089e-01 -9.01595592e-01 -7.50022650e-01 -2.15009674e-01 -4.76373956e-02 +2.61683321e+00 -1.18625470e-01 -2.68900633e-01 +8.19629133e-01 -3.15971208e+00 -2.85920724e-02 -1.97534478e+00 +2.12789774e+00 -1.71414030e+00 +1.99518061e+00 -2.46978259e+00 -4.52582985e-02 +5.22077417e+00 +6.07075262e+00 +6.37592912e-01 -2.56662995e-01 -1.72076130e+00 -1.97690892e+00 +2.47483507e-01 -2.05201983e-01 -3.93672138e-02 -2.02025130e-01 +1.53454053e+00 -2.90265250e+00 +2.83678746e+00 +7.92076409e-01 -2.26325125e-01 -2.62200981e-01 -3.91989917e-01 -1.42220724e+00 +1.16580740e-01 -1.49993861e+00 -2.15239453e+00 -4.14515877e+00 -3.92103863e+00 +1.83907658e-01 +6.43128109e+00 -5.39658499e+00 -4.46685696e+00 -6.16581738e-01 +2.80895591e+00 +4.24311733e+00 -2.48333454e+00 +5.33108997e+00 -4.83224106e+00 +1.76044077e-01 +7.89527357e-01 +2.06597522e-01 +1.05042644e-01 +5.79462461e-02 +1.42419338e-01 +6.31071106e-02 +8.66980106e-02 +1.03402555e-01 +1.64155196e-02 +1.34404004e-01 -2.33464932e+00 -4.00533867e+00 +2.43506551e+00 -4.56383377e-01 -2.46827789e-02 +3.40647626e+00 -5.07876110e+00 +6.22350693e+00 +3.00437260e+00 +9.29625556e-02 +5.34715652e+00 -4.28561068e+00 +3.57054663e+00 -3.24641228e+00 +1.15611053e+00 +5.29990816e+00 +7.93656397e+00 +6.23008907e-01 +2.38539986e-02 -4.96390247e+00 +2.72291392e-01 +1.94422081e-01 -3.23973393e+00 -3.90956688e+00 +7.25968853e-02 -4.41938907e-01 -2.38900042e+00 +5.73637199e+00 -2.38538980e+00 -4.03286695e+00 +2.19493061e-01 +6.89057857e-02 -1.64044225e+00 -1.84389520e+00 +9.69074294e-03 -5.31320715e+00 -1.41041100e-01 +8.96907374e-02 +1.77115873e-02 +1.92908227e-01 -3.61131310e+00 +9.48490024e-01 -1.55456671e-02 -4.24585056e+00 -6.64725113e+00 +3.83742166e+00 -1.25371858e-01 +5.47403358e-02 -5.96331406e+00 +5.79045005e-02 -6.59997988e+00 -4.16759923e-02 -2.54143190e+00 +2.70437336e+00 +2.21888995e+00 +1.75484732e-01 -8.22217762e-02 -1.62485397e+00 -6.53291416e+00 -6.27026260e-02 -1.92211252e-02 -1.43363923e-01 +3.16153169e+00 -3.40174699e+00 +1.46706596e-01 -7.00829566e-01 +4.84792089e+00 +4.50480604e+00 -3.84956169e+00 +3.25443006e+00 +6.45849481e-02 +6.78346968e+00 -6.37130165e+00 +3.02236319e+00 +2.52866466e-03 -3.34707212e+00 -6.77907392e-02 -1.08019777e-01 +6.57749474e-02 -3.89518070e+00 -6.29686490e-02 +1.34190261e-01 -5.43449116e+00 -9.69144106e-01 +2.11009443e-01 -2.54318976e+00 +2.21791014e-01 -9.23619270e-02 +6.78111538e-02 +8.19863081e-02 -3.84637684e-01 -2.09936306e-01 -2.16154270e-02 +6.98883533e+00 +1.78941861e-01 +5.32993793e+00 +5.11145163e+00 +7.74111366e-03 +3.97375917e+00 +4.31808472e+00 -4.71042722e-01 -8.18179641e-03 -1.02580142e+00 +3.15380991e-02 +3.56028104e+00 -2.82779384e+00 -4.38107634e+00 -4.46568394e+00 +1.19034685e-01 +4.00970727e-02 -6.60204887e-02 +4.62533665e+00 +2.00845674e-01 +4.34530878e+00 -4.18949813e-01 -2.83172512e+00 -6.51340708e-02 -5.43360151e-02 -1.42898396e-01 -6.86100870e-02 +1.79045796e-01 -1.89063638e-01 -2.43239418e-01 +2.16478840e-01 -1.11843014e+00 +4.91274819e-02 -2.56962508e-01 +7.32201481e+00 -8.99241716e-02 +4.52957340e-02 +2.05802655e+00 +1.81934997e-01 -1.86557221e+00 +7.14298201e+00 +4.44284007e-02 +2.63105011e+00 +5.55376673e+00 -4.12369061e+00 -4.33857822e+00 +1.48452938e-01 +6.12584782e+00 +1.21482566e-01 -6.09343767e+00 +4.87477541e+00 +1.20843492e-01 +4.50576305e+00 -5.01871668e-02 +7.33821964e+00 +4.31989729e-02 -1.14322290e-01 +6.25448525e-02 +6.78922749e+00 -3.98577094e+00 -4.48896065e-02 -2.34659687e-02 -7.14795828e+00 -2.81824395e-02 +1.09639250e-01 +1.70519733e+00 +3.16719174e+00 +2.29382753e-01 -3.78904557e+00 +5.46352243e+00 -4.26206017e+00 +2.56247497e+00 +4.15629196e+00 -2.66724341e-02 -5.93463230e+00 -2.49301052e+00 -3.41062456e-01 +4.48151790e-02 +3.54563928e+00 -3.60436726e+00 +2.12408161e+00 +2.71933302e-02 +9.58280563e-02 +9.51264352e-02 -6.47870749e-02 -6.00616980e+00 -6.52540112e+00 -5.31800151e-01 -3.59151848e-02 +6.68212995e-02 +8.93859565e-01 +3.57707834e+00 -1.48858562e-01 +2.17203689e+00 -2.46572852e+00 +1.97696030e+00 -8.61929512e+00 +1.69497836e+00 +4.30464172e+00 +1.68314362e+00 +3.28091002e+00 +5.13135314e-01 +1.02877402e+00 +2.03935409e+00 +1.87856996e+00 -4.92861462e+00 +1.40956128e+00 -1.93846434e-01 +1.41260648e+00 +9.51127559e-02 +1.15551576e-01 -3.25873017e-01 -1.40169993e-01 +3.23458225e-01 +1.35295257e-01 +5.96256461e-03 +1.78376645e-01 +9.43064988e-02 +7.20892966e-01 +1.54056385e-01 +1.49091971e+00 -3.97080988e-01 +1.06091499e+00 -6.17816687e+00 -7.35903406e+00 +4.50001001e+00 +2.85398269e+00 -1.86060872e-02 -4.51019764e+00 +2.11499381e+00 -6.48709822e+00 +2.98751891e-01 +3.65867472e+00 +4.27966386e-01 -1.15506086e+01 +1.62942743e+00 +4.32310849e-01 +9.58332419e-01 +2.61285096e-01 -1.25904074e-02 +1.08054376e+00 +8.37618113e-01 +1.51310071e-01 -4.91670084e+00 +3.61179900e+00 +5.60682106e+00 +3.04528666e+00 +1.49673438e+00 -6.60338783e+00 +1.47078454e+00 +1.79431665e+00 +1.21068728e+00 +1.53495938e-01 +2.81570882e-01 -4.06316929e-02 -2.62805503e-02 -1.40647754e-01 +4.79918383e-02 +6.14739321e-02 +1.73665631e+00 +1.30658239e-01 +1.08862519e+00 +3.43084979e+00 +7.35305786e+00 +1.63372353e-01 -1.18174680e-01 -9.50654602e+00 -2.59982020e-01 -7.36269855e+00 -7.92732835e-02 +1.02656496e+00 +4.33575541e-01 -5.50469542e+00 +4.53589670e-02 -1.12614900e-01 +1.21544576e+00 +1.05522251e+00 +1.31746203e-01 +3.14449668e-01 +2.67451517e-02 +3.27616191e+00 -5.77783012e+00 +3.19946706e-01 +1.80857015e+00 -8.59283733e+00 +7.63615942e+00 +3.62427568e+00 +4.84458780e+00 +2.05262184e-01 +1.89359081e+00 -8.71087551e+00 +2.32157207e+00 -1.03791639e-01 +2.56682777e+00 -1.08308423e+00 +1.24573991e-01 -8.82316157e-02 -1.02314978e+01 -2.38458723e-01 +3.10092151e-01 +1.56346059e+00 +3.02711636e-01 +9.13907364e-02 +1.47354615e+00 +4.18706946e-02 +3.14997554e-01 +7.63649344e-02 -5.27549125e-02 +1.22410047e+00 +9.51283455e-01 -4.41195592e-02 +2.73958588e+00 -8.97691213e-03 +4.16737843e+00 +7.80905437e+00 -9.70215257e-03 +2.36999989e+00 +1.71628821e+00 +3.65005404e-01 -1.03980921e-01 +1.46806765e+00 -1.02436304e-01 +1.77733421e+00 +6.09062850e-01 +1.43042004e+00 +1.67632163e+00 +5.24405479e-01 -5.00850119e-02 -1.67109609e-01 +4.82240725e+00 -1.22724853e-01 -6.62918997e+00 -8.54687023e+00 +1.41849315e+00 +1.14958845e-02 +2.13273391e-01 +1.39160231e-01 -3.56524289e-02 +3.99234965e-02 -1.54618606e-01 +1.82730347e-01 +3.76375407e-01 +7.80238390e-01 -6.25548601e-01 +4.70829904e-01 +2.47042608e+00 -2.72972763e-01 -5.04204556e-02 +1.15956795e+00 -7.14878216e-02 -1.06335215e-01 -6.26982212e+00 +1.40106201e+00 +4.73550224e+00 -6.91584492e+00 +5.86659861e+00 +1.80817485e+00 +1.00729555e-01 +1.66978931e+00 +2.22539231e-01 -7.36684275e+00 +1.63116992e+00 +2.22667400e-02 -7.35353041e+00 -2.34168582e-02 -9.05125427e+00 -3.33341330e-01 +1.11991954e+00 +3.73224122e-03 +4.70655012e+00 +2.55420756e+00 +4.99641560e-02 -1.39598668e-01 +2.90758324e+00 -1.73499316e-01 +8.75138491e-02 +1.74176669e+00 +4.40096140e+00 +3.00591644e-02 +2.85256457e+00 +6.03388834e+00 +5.54444504e+00 +8.19439411e-01 -1.01803045e+01 +4.10109311e-02 +3.12740159e+00 +1.06124306e+00 -4.17432189e-01 -1.37980992e-03 +9.66498435e-01 -7.06239271e+00 -6.06991243e+00 -3.96445245e-02 +8.11112486e-03 +1.09540829e-02 +6.19206786e-01 -6.31416512e+00 +2.86508131e+00 +9.21913087e-01 +1.69162914e-01 -1.65685549e-01 +8.16952825e-01 -6.77183437e+00 -2.28207752e-01 -8.09706879e+00 +1.42295647e+00 -5.23088694e+00 +6.35255724e-02 -2.41251454e-01 +6.84224272e+00 +2.47931075e+00 +1.18037629e+00 -1.87657022e+00 -2.13129997e-01 -2.96244240e+00 -1.20541728e+00 -3.88807249e+00 -4.47429514e+00 +4.67761718e-02 -1.90960121e+00 -2.49132719e-02 +7.25436583e-02 -1.77522860e-02 +1.55925872e-02 -3.42452824e-01 -1.44317150e-01 -6.48757443e-02 +6.83811903e-02 +7.79178441e-02 -2.53423959e-01 -2.49311137e+00 -2.41286850e+00 -3.63058895e-01 -3.32233489e-01 +1.78114688e+00 -9.67726946e-01 -3.59416795e+00 +1.17691636e+00 +1.06824465e-01 -4.14957285e+00 +3.18833232e+00 +4.07243061e+00 +7.04950169e-02 -1.15052307e+00 +2.94876409e+00 +9.26537454e-01 +2.37615943e-01 +6.25571683e-02 -3.00052834e+00 +3.52625340e-01 +9.19293836e-02 -2.67367697e+00 -2.06269431e+00 -1.69334728e-02 -6.62362218e-01 +1.22902727e+00 -2.67847872e+00 +5.72004652e+00 -3.68977737e+00 +2.87244058e+00 -1.75885126e-01 -1.69562900e+00 -6.67842329e-01 +1.99845999e-01 +3.13031983e+00 +2.07215752e-02 +8.84433091e-02 +2.07999989e-01 +2.52507985e-01 -1.92325830e+00 +7.24315703e-01 -4.69729453e-02 +1.50788462e+00 -1.63953245e+00 -2.60603189e+00 +1.83097258e-01 +4.90901098e-02 -3.52190423e+00 +1.99822739e-01 +3.35599065e+00 +2.32307762e-01 -1.74386621e-01 -3.24091405e-01 -5.30250883e+00 +2.31689990e-01 +2.29991376e-01 -1.28523409e+00 -3.96376896e+00 -5.17745875e-02 -4.45628203e-02 -1.82575300e-01 -2.86352396e+00 +1.56257796e+00 +6.28311979e-03 -9.33766842e-01 +1.24430311e+00 +4.51313019e+00 -9.98701900e-02 -2.17899656e+00 +2.34448984e-02 -2.43533158e+00 +3.49833667e-01 -3.04289961e+00 -1.43222297e-02 +1.24749756e+00 +2.74597198e-01 +1.48275211e-01 +4.58314829e-02 +6.17463303e+00 -3.28846946e-02 -4.12025526e-02 +3.43231392e+00 +1.23666143e+00 -1.36807188e-03 -1.27622879e+00 +3.45704854e-02 -4.08113934e-02 -5.37807541e-03 +2.26168603e-01 -7.04362616e-02 -2.83131361e-01 +3.21116835e-01 -4.20154858e+00 +2.47602925e-01 -2.68889046e+00 +1.46080399e+00 +2.25794360e-01 -2.55767918e+00 +3.48279588e-02 -1.51835531e-01 +1.83091402e-01 -3.54682982e-01 +1.74926728e-01 +8.64488363e-01 -1.65974751e-01 -1.85441124e+00 -1.93907785e+00 +1.47246838e-01 +4.20046523e-02 +2.38960341e-01 -2.30902338e+00 +3.37354727e-02 +3.53802705e+00 +1.50786734e+00 -8.37151885e-01 +3.02140564e-02 +1.70957848e-01 +2.75126733e-02 +2.36529246e-01 -9.68336239e-02 -3.56008001e-02 -1.29465833e-01 -3.05277318e-01 -3.22736502e+00 +1.40479775e-02 +7.85333663e-02 -3.94192529e+00 -4.84706044e-01 +2.24049583e-01 +4.63320583e-01 +2.02804238e-01 +4.26785898e+00 -1.35854399e+00 -4.74417418e-01 +3.87614346e+00 -1.49297953e+00 +5.73871565e+00 -4.41315919e-01 +2.47351244e-01 +1.81216621e+00 +1.43549308e-01 +1.92187822e+00 +4.74188137e+00 +1.74040079e-01 +2.05242515e+00 -3.92679833e-02 +3.28068495e+00 -2.60958552e-01 -4.96237159e-01 +2.29625463e-01 +6.86153126e+00 +7.74399281e-01 +1.45935297e-01 +4.37586643e-02 +2.47729135e+00 +2.42448092e-01 +1.86310470e-01 +2.38973212e+00 -3.81475186e+00 +1.73051700e-01 -1.93415415e+00 +1.91406131e+00 +1.92542875e+00 -7.99091160e-01 +7.04663372e+00 +2.12691471e-01 -1.85786331e+00 +5.75428784e-01 +3.50703113e-02 +1.22260414e-01 -1.97070622e+00 +1.12775750e-01 -1.89286399e+00 +5.64715564e-02 +1.59641027e-01 +6.66348562e-02 +2.99941413e-02 -2.18649459e+00 +1.16579080e+00 -9.75005150e-01 +1.96331114e-01 +2.20041066e-01 -1.58215690e+00 -1.56271482e+00 +1.35447413e-01 +6.21328259e+00 -3.16358387e-01 +6.41771376e-01 -3.86857688e-01 -2.26744816e-01 -3.79613972e+00 -4.50672656e-01 +2.53773510e-01 -2.30856359e-01 +9.49242175e-01 +1.61646080e+00 +7.42455795e-02 +4.08557773e-01 -3.11275095e-01 -1.82672981e-02 -1.45915346e-02 -7.41387680e-02 -1.98498536e-02 +1.86759204e-01 +2.03771800e-01 -5.02274558e-02 +7.63847604e-02 +2.23823786e-01 +6.78436384e-02 +2.15094730e-01 -3.95085871e-01 +1.93468487e+00 +5.20196073e-02 +2.22256124e-01 +1.41611874e-01 -3.00216341e+00 +1.25124371e+00 +1.98393250e+00 +8.49140823e-01 +2.00464010e-01 +7.27871239e-01 +8.21551859e-01 -5.13347626e+00 -2.06076309e-01 -6.84660053e+00 -7.81866407e+00 +3.13947105e+00 +5.45937307e-02 +2.07783043e-01 +1.25823343e+00 +1.87711626e-01 +9.18186083e-02 +1.16436779e+00 +1.89516693e-01 +1.42133161e-01 +2.07000181e-01 +1.09751034e+00 +1.32360053e+00 +1.22752106e+00 +3.10606897e-01 +9.10682321e-01 +1.68000981e-01 +2.76076174e+00 -1.89977020e-01 +2.49699578e-01 +1.95087600e+00 -1.30396765e-02 +2.35197935e-02 +1.34689743e-02 +1.84560180e-01 -4.77518654e+00 +2.72079617e-01 -5.10159247e-02 +6.34404600e-01 +6.36267900e-01 -3.46478844e+00 +2.54515205e-02 -3.41906734e-02 +5.40940166e-01 +1.03269173e-02 +8.82285893e-01 +1.28219947e-01 -2.35859066e-01 -6.44609213e+00 +8.56931746e-01 +1.25740394e-01 -2.39591999e-03 -3.09880227e-01 +1.07961309e+00 -1.33698970e-01 -1.24976359e-01 +2.19594032e-01 +9.33419883e-01 +1.78709224e-01 -2.86463071e-02 +1.17623517e-02 +5.06859446e+00 -3.92944813e+00 +8.56500208e-01 +1.07216382e+00 -1.04913756e-01 +3.32828522e+00 +2.18473792e+00 +6.66514814e-01 -7.17639253e-02 +7.53856897e-01 +3.58512363e-04 +1.51086599e-01 +1.98383093e-01 -5.59943914e+00 +1.13498405e-01 +4.21698950e-02 -1.74842799e+00 -6.96668923e-02 -2.18584342e-03 +3.29089850e-01 +5.48335537e-02 -1.00834921e-01 +2.42129713e-02 +1.06408291e-01 +5.24023138e-02 -1.55212790e-01 +2.44551048e-01 +1.78172076e+00 +1.33947000e-01 +1.24324131e+00 -4.79724586e-01 +2.22578831e-02 +1.57344174e+00 -2.88309765e+00 -3.66097987e-02 +1.58622965e-01 +2.26533726e-01 +1.08594663e-01 -5.56981754e+00 -2.74632096e-01 +8.40711474e-01 +2.26720524e+00 +2.00222686e-01 +2.12250248e-01 -2.54620612e-02 -3.76027942e+00 +1.84180722e-01 +5.75785255e+00 +2.18607569e+00 +6.35535359e-01 -2.12499760e-02 +3.26850191e-02 -1.80235878e-02 +3.97293940e-02 -4.89440747e-02 -1.18683904e-01 +1.30308941e-01 +2.58880436e-01 +3.32968473e+00 +8.62232875e-03 +1.00662746e-01 +2.80372047e+00 +7.88518786e-02 -2.55501680e-02 +1.29502147e-01 +7.65980259e-02 +1.28755784e+00 +1.21852064e+00 -1.08839512e+00 +6.56969118e+00 +5.48442662e-01 -4.44946623e+00 +4.55435127e-01 +1.15424596e-01 +1.28701735e+00 +8.17044377e-02 +8.29447925e-01 -1.08451920e+01 -3.84350717e-02 -4.15263510e+00 +2.69397676e-01 +9.92291629e-01 +2.62302104e-02 +1.11345530e-01 +1.41533986e-01 +2.70921969e+00 +1.16134048e+00 +9.67952535e-02 +7.66091123e-02 +1.35301813e-01 -1.00724734e-02 +1.74922496e-01 +2.70647764e-01 +6.00746512e-01 +2.20147878e-01 +9.99459684e-01 +1.61563969e+00 +8.39736164e-01 +1.16521513e+00 -4.34460115e+00 +1.24968544e-01 +5.04322171e-01 -3.75581884e+00 -1.11778351e-02 +6.11117668e-02 -5.65314960e+00 +5.72711885e-01 +9.61965621e-01 +1.20611943e-01 +5.99506572e-02 +1.15983084e-01 +4.66467477e-02 +5.97550988e-01 +2.67258048e-01 -1.58766717e-01 +8.11179727e-03 -5.68936057e-02 -4.74015713e-01 +4.86286783e+00 +1.99619785e-01 -6.39559460e+00 +6.99825048e-01 +1.98552775e+00 +1.98214030e+00 -2.20626444e-01 -2.30374885e+00 +9.43738759e-01 +1.20799136e+00 +2.97789685e-02 -9.42165911e-01 +8.81640553e-01 +3.42861950e-01 +1.43622375e+00 +1.46484303e+00 +2.17307672e-01 +1.54116619e-02 +1.67104512e-01 -8.31193775e-02 +1.79925725e-01 +6.23099320e-02 +1.67872176e-01 +3.43174003e-02 +9.02130827e-02 -1.75195575e-01 +1.97936520e-01 +2.05998957e-01 -5.00848961e+00 +4.58543807e-01 +9.55353454e-02 -7.14702979e-02 +1.84683430e+00 +7.20978916e-01 +2.33762741e+00 +8.93296599e-01 +1.04820535e-01 +1.06622994e+00 +5.78534722e-01 +2.05288768e+00 +6.34711981e-01 +8.44572842e-01 +2.92618704e+00 -5.49869633e+00 +2.24439695e-01 -6.87313080e-02 +2.72148073e-01 +8.44579637e-02 +6.99854735e-03 -3.35987353e+00 +4.63230759e-01 +2.27313668e-01 +3.07554781e-01 -1.08207881e+00 +2.01397443e+00 +1.24512815e+00 +1.27062157e-01 +1.76812589e+00 +1.42518818e-01 -7.64935136e-01 +1.33297458e-01 +8.61002207e-02 +4.20499355e-01 -7.45474622e-02 +1.94634259e-01 +1.01261608e-01 +5.02646975e-02 +1.99201560e+00 +3.47120792e-01 +9.26514715e-02 +6.95443571e-01 +6.12021863e-01 +3.29629302e-01 +3.53825763e-02 +2.46197686e-01 +2.77672625e+00 +1.55232131e-01 -1.25523818e+00 -5.21769226e-02 +7.95471191e-01 +2.25404978e+00 +4.72301769e+00 +9.66991559e-02 +1.23922512e-01 +2.45216161e-01 +5.11775255e-01 +1.11671023e-01 +3.86999425e-04 +7.27937222e-02 +1.18633974e+00 -1.22149840e-01 -2.84021422e-02 -2.36476049e-01 -5.20575476e+00 -4.53142500e+00 +5.09037018e-01 +6.04667485e-01 -1.76946774e-01 -3.52787828e+00 +3.46725488e+00 +4.21488792e-01 +3.05882134e-02 +1.54247940e+00 -3.93374749e-02 -4.12786752e-02 -5.78989908e-02 +1.69283354e+00 +7.58137107e-02 -1.36958405e-01 +1.13083184e+00 +9.73238349e-01 +4.67716940e-02 +3.29360694e-01 +1.67613760e-01 +1.79043218e-01 -3.33625153e-02 +3.63232791e-02 -2.23529395e-02 -1.63022667e-01 -1.02944276e-03 -3.17517781e+00 -2.90303417e-02 +4.61448103e-01 -6.89377785e+00 -4.96638101e-03 +5.21614552e-01 -3.62931401e-01 -2.31660288e-02 -1.09586626e-01 -6.26747370e-01 +1.36643380e-03 +9.32069719e-01 +5.82322240e-01 +4.41753894e-01 -3.47042179e+00 -1.83904409e-01 +1.39959306e-01 +1.11379892e-01 +1.19182742e+00 +3.88632156e-02 -3.20940638e+00 +2.32905436e+00 +1.65842009e+00 +4.45346087e-02 +1.16854824e-01 +2.94339396e-02 -8.48566741e-03 +7.17286840e-02 +1.20329775e-01 +7.28993304e-03 -1.02639198e-01 +1.24771130e+00 -6.10383153e-02 -1.91946123e-02 +1.20434940e+00 +1.71768256e-02 +1.68818712e-01 +3.00584227e-01 -7.79372305e-02 -4.37860203e+00 +2.19620371e+00 -1.33118900e-02 -8.32667732e+00 +1.14153898e+00 -1.89412579e-01 -2.91268802e+00 +1.24148376e-01 -1.19151580e+00 -2.08158959e-02 +7.27221668e-01 -2.35641909e+00 +5.69688827e-02 +3.86104536e+00 +4.79499958e-02 -7.12931633e+00 -5.66173494e-02 +2.13541631e-02 +1.26367047e-01 -4.06249094e+00 +1.15001023e-01 +5.27906083e-02 +1.13129267e-03 -2.83769488e+00 +2.17038706e-01 +4.72960025e-02 +5.33561587e-01 +2.17748260e+00 +4.78418507e-02 +7.37759233e-01 -4.15188456e+00 +2.99603194e-01 +4.09901381e-01 +1.36552656e+00 +1.26156986e-01 +2.96031523e+00 +1.53481960e+00 -1.45005777e-01 +1.64519161e-01 +1.82812130e+00 +1.93797636e+00 -4.72342587e+00 +1.44286737e-01 -4.92353784e-03 +1.49406493e-01 -2.72213239e-02 +1.02289331e+00 -5.08678770e+00 +2.68350206e-02 +1.54745355e-01 -5.94882481e-02 +1.03063621e-01 +1.80780590e+00 +1.85263082e-02 -3.88782549e+00 +1.89931750e+00 +2.81798983e+00 -6.03651106e-02 +4.15652175e-04 -7.12925494e-01 -2.97278714e+00 +8.98085785e+00 +4.40780580e-01 -2.63973624e-01 -3.38474602e-01 -8.26646984e-01 -4.28851396e-01 -9.44819391e-01 -8.50529224e-02 -1.93196028e-01 -2.09011063e-01 +2.98953988e-02 -1.31124809e-01 -6.08562566e-02 +4.07113396e-02 +3.46050672e-02 -4.00320701e-02 -1.30274490e-01 -3.19245048e-02 +1.07413387e+00 +3.40578675e+00 -3.51166189e-01 +1.49074227e-01 +6.33503944e-02 -3.83993220e+00 +2.77144462e-01 -6.11414015e-01 -2.02922416e+00 -1.87347844e-01 -1.10890055e+00 -2.55941319e+00 -3.89362872e-01 +6.03108835e+00 -4.17112261e-01 -1.00021708e+00 -4.63271666e+00 +1.98652923e-01 -2.92537194e-02 +3.54300761e+00 -1.83304608e-01 +2.02350467e-02 +7.77317858e+00 -6.70988739e-01 +6.83929384e-01 -5.03530622e-01 +4.48462200e+00 -1.25805783e+00 -5.47263265e-01 -2.00418544e+00 -2.44243577e-01 -1.23273432e-01 -2.51865220e+00 +6.31675422e-01 -7.98546299e-02 -7.96322167e-01 +8.58593136e-02 +1.29203321e-02 -1.52736604e-01 -7.19747543e-02 +1.76862943e+00 -3.08314502e-01 -7.20617641e-03 -7.08419561e-01 +1.06989026e+00 -2.94980884e+00 +6.42564073e-02 +1.38740605e-02 +1.01471491e+01 +1.85433682e-02 -2.18395710e+00 -1.68768631e-04 +5.65926194e-01 -1.28702056e+00 -4.83744949e-01 +9.05760676e-02 -1.24155492e-01 -2.88899064e-01 +9.57609892e-01 -1.30156398e-01 +1.43607795e-01 +1.27511576e-01 -1.54749203e+00 +2.57329893e+00 +5.87101951e-02 +1.52895078e-02 -8.43290031e-01 -7.41344541e-02 -1.37515247e-01 -1.85122848e+00 -2.62997180e-01 -3.88125992e+00 +1.83528975e-01 -4.64372426e-01 -7.46378154e-02 +5.33185577e+00 +8.15238282e-02 -1.83233887e-01 -1.56577975e-02 -1.34160554e+00 +1.86077319e-02 -1.39110297e-01 -1.97617722e+00 -5.43513417e-01 +8.18830281e-02 +1.87208319e+00 -7.98243284e-02 +1.10388413e-01 -1.47687659e-01 -1.56452705e-03 -1.78483605e-01 +2.23254841e-02 -1.20663092e-01 -1.23590279e+00 -1.71501979e-01 -8.16596985e-01 +2.48687959e+00 +8.36991742e-02 -1.16589975e+00 -4.22170818e-01 -1.61187366e-01 -1.15443967e-01 +1.46603450e-01 -1.92154184e-01 -6.96982861e-01 +2.23599434e+00 -4.22944456e-01 -1.28651965e+00 -1.06779583e-01 -9.52672437e-02 -1.50817841e-01 -1.99234143e-01 -1.94121942e-01 -1.83288053e-01 +7.17387962e+00 +5.90205479e+00 +8.79678205e-02 -2.88852938e-02 -4.39931750e-02 -9.08688083e-02 +2.51462311e-02 +3.33890878e-03 -6.11464828e-02 +5.56399636e-02 +9.99031901e-01 +1.57153413e-01 -3.54159735e-02 -2.81321645e-01 +7.53447264e-02 +8.08957033e-03 -4.46536511e-01 -7.84682706e-02 -1.48037410e+00 -2.09893465e+00 +1.02897413e-01 -8.53339076e-01 -1.86188388e+00 -3.53569651e+00 -1.89482486e+00 -1.45987928e-01 -9.01025057e-01 +1.49540035e-02 -1.19739020e+00 -1.63084075e-01 -1.21447161e-01 -3.46343923e+00 -1.94378436e-01 -1.74496031e+00 +8.84813741e-02 -2.09064811e-01 -1.55145556e-01 -1.49678349e+00 -1.52308512e+00 -7.25987256e-02 -1.87754422e-01 +2.48782501e-01 -1.38034327e-02 -5.20972982e-02 -4.63467926e-01 -8.66178989e-01 -2.20396623e-01 +3.18097544e+00 -2.60730410e+00 -8.59439433e-01 -8.67424548e-01 -4.78263825e-01 +7.27775544e-02 +3.87772441e+00 -2.96071196e+00 +7.14810863e-02 +6.56570271e-02 -2.32250020e-01 -1.16912401e+00 -3.21770310e-01 -6.04872368e-02 +7.86763057e-02 -4.78193015e-02 +8.37108314e-01 +2.85931206e+00 -1.48053956e+00 -1.17412573e-02 +8.32935721e-02 +3.86697240e-02 -1.91574544e-01 -9.01224792e-01 -9.23524424e-02 -6.08009577e-01 +5.18869066e+00 -1.88602805e+00 -1.02648509e+00 +5.28422631e-02 +1.32599664e+00 -3.39298606e+00 -1.93188095e+00 +1.53542180e-02 -1.13222289e+00 -2.11637187e+00 -6.58763587e-01 +3.65621209e+00 +1.22526073e+00 -6.35952204e-02 -3.22823673e-01 +1.71101803e-03 -7.22174793e-02 +2.59702027e-01 -1.00623056e-01 +3.91349196e-01 -1.11001618e-01 -1.75066531e-01 -2.85755657e-03 -1.82594612e-01 -7.82340318e-02 -6.06277764e-01 +3.24198675e+00 -2.56565567e-02 -1.39829934e-01 +4.52502441e+00 -3.69294238e+00 +2.03978634e+00 -1.61779511e+00 -1.97390333e-01 -1.35091436e+00 -6.55959427e-01 +2.97840071e+00 -1.05561507e+00 +3.86183619e+00 +6.91132009e-01 -7.63427258e-01 -2.18516812e-01 +1.14290565e-01 -3.28431296e+00 +6.52362347e-01 -1.09698929e-01 -1.05169737e+00 -1.93653011e+00 +5.22343278e-01 +1.42821908e+00 -1.27550256e+00 +2.32450294e+00 -3.24517584e+00 -1.58107078e+00 +1.73197651e+00 -4.35071215e-02 -1.01580942e+00 +1.57579228e-01 -1.70921385e-01 +1.94811141e+00 -3.54255401e-02 -1.05939150e-01 -1.70585155e-01 -1.85921326e-01 -2.37979150e+00 -5.13374031e-01 -7.67163634e-02 -7.31661797e-01 +2.00466871e+00 +5.78316307e+00 +2.29166131e-02 -2.29946509e-01 -1.68857205e+00 -5.90379238e-02 -2.74847484e+00 -2.14081720e-01 -8.52604628e-01 -7.54665732e-01 +4.28588772e+00 -1.66651338e-01 +1.35051608e-02 -2.89324731e-01 -8.97975922e-01 -6.25803694e-02 -1.32016718e-01 +2.67327800e-02 -3.87535691e+00 -1.05027103e+00 -1.51310936e-01 +2.44700819e-01 +2.18275952e+00 +3.47428823e+00 +4.20770884e+00 -1.50951004e+00 -7.55800158e-02 -3.18959546e+00 +3.55153203e+00 +2.38720155e+00 -2.06880714e-03 -2.21227813e+00 -1.10249415e-01 +2.73165554e-02 -2.58878380e-01 +2.34547377e+00 -1.14418142e-01 -1.79061040e-01 -2.73365569e+00 -9.22981262e-01 -2.04559579e-01 -2.01411515e-01 -2.31196675e-02 +2.92800590e-02 -3.85673419e-02 -1.52956909e-02 +1.68124661e-01 +1.54722422e-01 -4.97638397e-02 -1.93889654e+00 +1.54506192e-02 +3.22489762e+00 -4.10214365e-01 -1.53938547e-01 -1.74144399e+00 +3.98789167e-01 +1.14257084e-02 -1.47374138e-01 +1.20815642e-01 -1.92699462e-01 +2.87136674e+00 -9.15219545e-01 -2.85559344e+00 -3.17104602e+00 +2.54505016e-02 -1.57451332e-01 -1.61352903e-01 +3.51103044e+00 -3.97823490e-02 +8.52765620e-01 -2.41085935e+00 +6.44765079e-01 -4.18463126e-02 +3.58176008e-02 -5.61363995e-02 -2.13977873e-01 +6.83069974e-02 +1.28552839e-01 -5.94934598e-02 -7.03907833e-02 -3.23164344e+00 +1.00299172e-01 +1.45373002e-01 +5.77683747e-01 -1.92045867e-01 -1.15105256e-01 -6.76511526e-01 +3.34056839e-02 -1.53094757e+00 +3.16307807e+00 +5.19816816e-01 +2.79695034e+00 -2.08733201e+00 -1.82766390e+00 -1.06449795e+00 -1.07911468e-01 +1.60439745e-01 -2.38909602e-01 -1.78738856e+00 +1.84718251e+00 -2.43428200e-01 +5.90433216e+00 -1.16694666e-01 -2.55462885e+00 +8.65464211e-02 +4.87492308e-02 -6.70320094e-02 +4.89899784e-01 +2.03986669e+00 -1.74838588e-01 -2.20071644e-01 -2.51584172e+00 -1.40704080e-01 +3.60614173e-02 -1.85026348e-01 +8.49865198e-01 -9.68835205e-02 -1.09244990e+00 -2.03790927e+00 +8.75498414e-01 -7.40383506e-01 +4.08228540e+00 -1.46680877e-01 -1.34855103e+00 -2.28458405e+00 -1.26349866e-01 -1.49795204e-01 +4.26978350e+00 -2.00220823e+00 -1.53420007e+00 -1.34917930e-01 +2.21539941e-02 -1.38864622e-01 -1.89123914e-01 -1.90497994e+00 -1.85161805e+00 -1.04938105e-01 -2.33496934e-01 -1.68437690e-01 +3.38579321e+00 +5.21689606e+00 -7.51207098e-02 +5.71124077e+00 -1.04830122e+00 +5.35362053e+00 -1.86246598e+00 -9.69291151e-01 -2.13708591e+00 -5.27687597e+00 +2.54290009e+00 -5.80286160e-02 +3.54713708e-01 -2.06432915e+00 -4.42231989e+00 +2.00684786e+00 -4.53069401e+00 +1.89131320e-01 -2.22613525e+00 +2.67387591e-02 +1.51250467e-01 +8.51294845e-02 +1.69073969e-01 +1.71992093e-01 +3.03558577e-02 +1.76943421e-01 +9.54753160e-02 -3.34890522e-02 -1.57648623e+00 +3.87986016e+00 -1.75000060e+00 -2.38964424e-01 -8.21872950e-02 -1.86957586e+00 -6.74746692e-01 -2.68313742e+00 +3.34942341e+00 +4.12073173e-02 +9.08562362e-01 -1.57788777e+00 -7.61438549e-01 -5.22314405e+00 -1.48300719e+00 +1.82200658e+00 +3.88721347e+00 +1.45677209e-01 -4.21765208e-01 +1.90543699e+00 +2.46745907e-02 -2.53890678e-02 +1.88433003e+00 -1.64416480e+00 -1.15293872e+00 -3.15770650e+00 +3.29933190e+00 +2.65273571e+00 -3.90769029e+00 +3.73843622e+00 +7.16458619e-01 +7.92632550e-02 +2.48038554e+00 -1.16693449e+00 +4.03016023e-02 -2.33099174e+00 +1.82485655e-01 +7.34835537e-03 -6.80176541e-02 +9.97167826e-02 +2.55337432e-02 +1.09368253e+00 -4.85535450e-02 -2.55596972e+00 -1.15281248e+00 +8.79463136e-01 +8.11406597e-02 +1.57384947e-01 +3.00393414e+00 +8.13308805e-02 +4.26797485e+00 +2.45993212e-01 -2.69677281e-01 +5.53503931e-02 -1.96158624e+00 +1.77245691e-01 +8.95377845e-02 +4.54277620e-02 +3.64500284e+00 -2.96314001e-01 -3.55464309e-01 -4.20013666e-02 +1.32883215e+00 +2.61278725e+00 +1.05597835e-03 -3.85782570e-01 +6.67952204e+00 -7.16591060e-01 -2.82690120e+00 +2.47580886e+00 -6.14407301e-01 +4.45011806e+00 -5.08472395e+00 -1.26059175e-01 -1.22467831e-01 +2.96245503e+00 +8.20246190e-02 -1.85819082e-02 +8.56751874e-02 -2.62386942e+00 -1.30564459e-02 -3.23470160e-02 -1.86263204e+00 -3.77476525e+00 +1.02027714e-01 +8.08032751e-01 +8.98694545e-02 -6.19894154e-02 +1.45453498e-01 +1.87181950e-01 -4.80150282e-01 -1.40049428e-01 +4.45393622e-02 +4.76296806e+00 -2.60931738e-02 -1.86050260e+00 +2.02951264e+00 +1.03992112e-02 -4.05693340e+00 +9.76244867e-01 -2.31818825e-01 -4.03007269e-02 -2.01598600e-01 +9.39637274e-02 -4.90414500e-01 -2.68952513e+00 +2.02078915e+00 +3.12181449e+00 -1.04556322e-01 +5.29717319e-02 +1.03756517e-01 -5.82139306e-02 +1.56744897e-01 -5.15522909e+00 +4.85274553e+00 -1.01312518e+00 +2.41016131e-02 +2.24575505e-01 -2.31924932e-02 +2.21006244e-01 +1.45764008e-01 -5.72931245e-02 -3.40689532e-02 +1.39813036e-01 -4.43230057e+00 -1.10719062e-01 -3.16597641e-01 -2.50153005e-01 -1.13176480e-01 +3.41537339e-03 -2.13580132e+00 +4.38635685e-02 -3.98428893e+00 -2.07090259e-01 -8.06565821e-01 -4.29651976e+00 -1.97467178e-01 -8.88987958e-01 +9.45677519e-01 -4.72700633e-02 +3.90839195e+00 +1.18647031e-01 +2.90518045e+00 -2.17804432e-01 -8.11020434e-02 -2.42766476e+00 +9.99479592e-02 +7.11754656e+00 -2.45874569e-01 -7.85036206e-01 -1.88283622e-02 -1.54485667e+00 -2.35015988e+00 -2.59287395e-02 +2.46899605e-01 +4.29898119e+00 -2.67322864e-02 +1.17263868e-01 -4.65796757e+00 +4.60368776e+00 -3.45324278e-02 +2.67419887e+00 +3.72364759e+00 -1.11507940e+00 -4.28179073e+00 -2.42104101e+00 -3.42573076e-02 +3.43498015e+00 -2.48132968e+00 +7.53844455e-02 +7.81707987e-02 -2.10079670e+00 -1.26300609e+00 +2.57711077e+00 +4.56173858e-03 +7.63552114e-02 -1.87850744e-02 -2.16654912e-01 +3.67547488e+00 +2.68109345e+00 -3.99924695e-01 +6.39390722e-02 +1.69377640e-01 +6.59099519e-01 -3.11976743e+00 +1.18765697e-01 -1.38228941e+00 +2.46552253e+00 -4.85036731e-01 +3.78519440e+00 -1.10246563e+00 +3.71363282e+00 -2.41898322e+00 -2.24438691e+00 -2.04351664e+00 +6.45701706e-01 +2.68336129e+00 -2.79989147e+00 +4.61204815e+00 -1.35325634e+00 +7.69208223e-02 -1.69134092e+00 +1.28922462e-01 -1.29242092e-01 -7.09386170e-02 +3.17007825e-02 -1.23863772e-01 +7.23695084e-02 -3.33443880e-01 -2.64167845e-01 +7.31127635e-02 -6.99713647e-01 -3.13512892e-01 -1.01475739e+00 -8.12313378e-01 -1.46622980e+00 +4.71228647e+00 -1.59294474e+00 -2.59895849e+00 +1.30810425e-01 -1.38255190e-02 -3.86248636e+00 +3.21778178e+00 +5.25546741e+00 -3.95933330e-01 +1.60397196e+00 -3.76881003e+00 +1.83078206e+00 -2.46437931e+00 -4.13060218e-01 -5.66089749e-01 -2.02279997e+00 +5.71704060e-02 -9.78283525e-01 -7.74910808e-01 -2.08988476e+00 -2.88187981e+00 -1.08399773e+00 -2.43971157e+00 -2.19331384e+00 +6.85136855e-01 +2.52991772e+00 -1.21431768e+00 +3.05879760e+00 -1.09560788e+00 +9.16417092e-02 -9.12167788e-01 +2.22522408e-01 +4.29271371e-04 +1.30109861e-01 +1.64006144e-01 +4.12871218e+00 -8.58333528e-01 -9.50190797e-02 -5.84855117e-02 +8.09437156e-01 -7.20149815e-01 +4.54802737e-02 +1.67872027e-01 -4.41612937e-02 +8.03884566e-02 +5.44168806e+00 -2.31480747e-02 -1.25288439e+00 -5.45133686e+00 -2.93808603e+00 +1.87618330e-01 -2.85497271e-02 -5.49319724e-04 -1.59765005e+00 -2.25252479e-01 -3.52575928e-01 -5.29127680e-02 -1.72479991e-02 -1.60952318e+00 -1.77461848e-01 -1.64945340e+00 +2.24154472e+00 +4.49876595e+00 -1.19317293e+00 +2.99133807e-01 -1.32829085e-01 +8.46858084e-01 -1.91130137e+00 -1.16594005e+00 -2.59156972e-01 -2.92550135e+00 -6.57673776e-01 +1.01111934e-01 +1.56618372e-01 +5.66111279e+00 -1.23681098e-01 -4.95796762e-02 -1.33685327e+00 +1.97657001e+00 +5.14246784e-02 -8.90789866e-01 +4.87225950e-02 -2.55224496e-01 +3.11452672e-02 -4.11487892e-02 -5.55412531e-01 -1.09591246e+00 +2.26217970e-01 -1.58505905e+00 +1.60212800e-01 -1.45038080e+00 -1.16918218e+00 +6.36355728e-02 -1.65327179e+00 +2.52437544e+00 -2.49074414e-01 -4.42938916e-02 -1.26198864e+00 +3.27424519e-02 +3.14036489e+00 -8.56757700e-01 -1.45430946e+00 -4.49024849e-02 -4.36854541e-01 +1.76864132e-01 +2.68950969e-01 +3.49817038e+00 +2.41091549e-01 +2.87546605e-01 -2.51401711e+00 +4.35423166e-01 +1.73040375e-01 -1.30630538e-01 -1.42372668e-01 +1.64145961e-01 +8.07854906e-02 -6.93080842e-01 +4.42400537e-02 -2.64339507e-01 -2.26247811e+00 +5.59143461e-02 -1.65582791e-01 -2.29277301e+00 -1.40177917e+00 +8.48789662e-02 -1.76941180e+00 +2.25792781e-01 -5.69629967e-01 -3.93169932e-02 -3.21492642e-01 -3.75501275e-01 -1.58430922e+00 +9.14415169e+00 +3.61063629e-01 +1.44912124e-01 +4.48566580e+00 +2.11466670e-01 +2.16351295e+00 +3.13023758e+00 -8.98802876e-02 +3.95271397e+00 -1.04833379e-01 -3.35281372e+00 -3.87705147e-01 -4.84884560e-01 +1.25561254e-02 -3.77606440e+00 -2.20336080e+00 -2.63676718e-02 +1.67232946e-01 +2.07714963e+00 +5.57081364e-02 +1.43509675e-02 +5.74688435e-01 -1.75753343e+00 -4.59696911e-03 -3.60598373e+00 -2.92851210e+00 +3.25164390e+00 -1.10292292e+00 +7.26057959e+00 -2.32694559e-02 -1.43842137e+00 -1.55797696e+00 -9.99535441e-01 +9.93324071e-02 +1.22616446e+00 +3.17655540e+00 -1.07618654e+00 +5.93858249e-02 +6.21183366e-02 +1.71722233e-01 -1.77099061e+00 -4.89311010e-01 +2.41519523e+00 -1.09186995e+00 +1.05873086e-01 +3.67212594e-02 +1.60716200e+00 +2.27753067e+00 +1.55212343e-01 +9.17839909e+00 -1.17507827e+00 -2.24607229e+00 -1.11136281e+00 -1.48429823e+00 +3.81772184e+00 -2.41286278e+00 -4.27780032e-01 -6.31886840e-01 -2.31806219e-01 -4.29659939e+00 -2.67154884e+00 -4.00833082e+00 -4.02081347e+00 -7.93592334e-02 +2.28808239e-01 -2.47777514e-02 +1.11675434e-01 +1.39100861e-03 +2.80458063e-01 -5.01918316e-01 +1.51821911e-01 -2.97757149e-01 -1.51504591e-01 +1.65269241e-01 -1.93402290e+00 +9.94790673e-01 -2.09998393e+00 -6.08671486e-01 -7.96682894e-01 +8.48390007e+00 -3.75838375e+00 -4.03392702e-01 -1.55829191e+00 +1.06399097e-02 -3.14121127e+00 -1.31819308e+00 -4.55688810e+00 +5.22413254e+00 +3.85115147e+00 +5.29728413e+00 -2.14590526e+00 -1.51254189e+00 -7.37090886e-01 +3.74579239e+00 -1.38436460e+00 +7.31872097e-02 +1.50152862e+00 -1.19527769e+00 -2.01004815e+00 -3.19916463e+00 +4.36371660e+00 -4.01921064e-01 -3.32150578e-01 -9.05604959e-01 +7.55255365e+00 -1.65492976e+00 +4.69441080e+00 -1.16592562e+00 +9.92576405e-02 -8.33949566e-01 -1.01981692e-01 -6.49796277e-02 +1.52967215e-01 +2.69233212e-02 +5.28102446e+00 +1.65457225e+00 +8.67836848e-02 -1.18910813e+00 -1.42885578e+00 +5.35897446e+00 -4.64122146e-02 +7.56962001e-02 -3.45130205e+00 -2.33023148e-02 -1.15882444e+00 +2.57017642e-01 +6.66271746e-01 +5.64552069e+00 -2.87414742e+00 +1.89651087e-01 +1.45805717e-01 -6.48257256e-01 -9.89919543e-01 -1.93155006e-01 -1.34685755e-01 -1.35091722e-01 -1.84997752e-01 -1.30399883e+00 +7.14727342e-02 -1.51191115e+00 -3.89344907e+00 -7.41139829e-01 -1.50294602e+00 -1.96131337e+00 -1.21724904e+00 -2.15666938e+00 -5.80503798e+00 +7.60455430e-01 -1.07459217e-01 +5.14256418e-01 -9.10358846e-01 +1.66938990e-01 +3.97777222e-02 +5.01930571e+00 -2.24480242e-01 -2.65780836e-01 -3.43022108e-01 -2.88162798e-01 +1.66633334e-02 -1.95577884e+00 +1.64345205e-01 -2.15800315e-01 +1.71804234e-01 +1.89506505e-02 -3.40074927e-01 -7.63443768e-01 +9.94258933e-03 +4.46023822e-01 +9.36619937e-02 -4.40887403e+00 +3.20836639e+00 -1.27002135e-01 -4.75795698e+00 -4.19310760e+00 -4.44430172e-01 +1.46779656e-01 -7.70459354e-01 -1.92176793e-02 -3.21923923e+00 -1.61536217e+00 -4.82865691e-01 +2.67186213e+00 +1.02197409e-01 +9.59190056e-02 +2.78112721e-02 +8.98285294e+00 +1.34273872e-01 +2.57729769e+00 +5.01275444e+00 -4.88451052e+00 -6.02118596e-02 -1.26578771e-02 -1.01591587e-01 +1.92746803e-01 -1.37186214e-01 -1.66941166e-01 +7.41088465e-02 +2.81009525e-02 +5.67214441e+00 -5.17605424e-01 -3.05658907e-01 -3.20971704e+00 -1.54995179e+00 +1.30447254e-01 +1.08929265e+00 +1.47420838e-01 +5.54688573e-02 +2.83579755e+00 -1.26601386e+00 +4.48107386e+00 -5.57690382e-01 +7.14771318e+00 -7.60977343e-02 +2.36843199e-01 -2.67728853e+00 -6.52124584e-02 +4.91154003e+00 +1.35054445e+00 +1.06890621e-02 +9.79159737e+00 -1.16520554e-01 -1.98996216e-01 -4.10045207e-01 -3.31434160e-01 +2.72122353e-01 +4.37997341e+00 +5.72548485e+00 -2.19344348e-01 +8.85905400e-02 +7.01865733e-01 +1.97623193e-01 -1.00144148e-02 -1.29992336e-01 -2.54360318e+00 -2.87278701e-04 -1.00370514e+00 +1.54710424e+00 +4.71443653e+00 -2.89651108e+00 +3.29779387e+00 +1.06113233e-01 -3.22092295e+00 -1.79744112e+00 -9.73280847e-01 +6.01820946e-02 -3.78036189e+00 -5.59497654e-01 -6.41024470e-01 +1.52810484e-01 +2.18738660e-01 +1.85939059e-01 -1.88579309e+00 -3.95207024e+00 +5.59788883e-01 -7.75861979e-01 -3.93446423e-02 +4.80437931e-03 -2.89414382e+00 +2.89991903e+00 -4.63988166e-03 -3.79671645e+00 +4.88577986e+00 -2.02271414e+00 +7.51180696e+00 +6.72225118e-01 -4.18806362e+00 -3.51590657e+00 +4.66457605e+00 +1.51114595e+00 +1.38413048e+00 -3.75057530e+00 -2.18598914e+00 -3.43384814e+00 -2.17845535e+00 +2.21299812e-01 -6.22073829e-01 -2.54630238e-01 -1.39096946e-01 -2.38821153e-02 +1.23443361e-02 +4.01341975e-01 +2.99367271e-02 +2.06426531e-02 -3.52127571e-03 -1.91390261e-01 +1.43789804e+00 +5.06488657e+00 -1.16239107e+00 +6.31716102e-03 +5.58910072e-01 +1.89835680e+00 -1.83725929e+00 -3.52504563e+00 +4.87556314e+00 +2.18361132e-02 -2.17511845e+00 +2.75080705e+00 -2.48154497e+00 +6.23544788e+00 -3.54978204e+00 -3.12180161e+00 +2.66459966e+00 +1.13413177e-01 -6.07115328e-02 -5.04185295e+00 -2.86174566e-01 -3.57314721e-02 +3.02131867e+00 -1.70113838e+00 +1.61146986e+00 -1.17074847e+00 +4.07618380e+00 -4.12838650e+00 -2.29425025e+00 +4.10922194e+00 -2.43596840e+00 +1.65487790e+00 +9.31913137e-01 +2.02227211e+00 -8.40630606e-02 -1.87561488e+00 +1.02854170e-01 -9.03025344e-02 -7.86863789e-02 -8.61134008e-02 +5.65555191e+00 +2.65954494e+00 -1.80637524e-01 -1.13071895e+00 -7.64438331e-01 -2.05192113e+00 -1.39011554e-02 -6.57433923e-03 +7.19188213e-01 +1.13593608e-01 +1.65607965e+00 -1.20067284e-01 +2.08847666e+00 -4.59778881e+00 -9.79616165e-01 +2.56495178e-02 +1.04523655e-02 +1.49800706e+00 -2.56243515e+00 -2.01147512e-01 +4.23982978e-01 -9.26107615e-02 -2.80261755e+00 +2.09194350e+00 -1.26786279e-02 -1.72808275e-01 -1.19157779e+00 -5.45351124e+00 -2.61715722e+00 -2.56485152e+00 +2.23178625e+00 +5.85609150e+00 -4.79889631e+00 +3.74553227e+00 +1.74103841e-01 +4.51385164e+00 +1.33811879e+00 +6.15445822e-02 -3.00678844e-03 -6.98843813e+00 +4.03687716e-01 +1.34336501e-01 -2.68137860e+00 +2.50802732e+00 -1.61076576e-01 +2.08504701e+00 -1.48308173e-01 -1.95248649e-01 -6.23882078e-02 +4.31169122e-02 +1.41254091e+00 +1.31185305e+00 +4.21139151e-02 -2.65044856e+00 -9.34669282e-03 -2.54183102e+00 +9.65023136e+00 -8.34817588e-02 -1.18660903e+00 +5.41282129e+00 +5.39839804e-01 -1.55463025e-01 +1.60959518e+00 -2.04034895e-01 +4.08172798e+00 +3.36531019e+00 -1.50662041e+00 -3.90069509e+00 +2.87093163e-01 -5.34345917e-02 -2.53267556e-01 +2.31491232e+00 -1.58054039e-01 -9.04774785e-01 +3.12164831e+00 +3.13642812e+00 -1.96471602e-01 +5.55758215e-02 +7.50695020e-02 -1.68215353e-02 -1.40279710e-01 +2.68403292e-01 -6.97295591e-02 +2.52621919e-01 -1.47052681e+00 +6.19518042e-01 +4.52918351e-01 -2.13532352e+00 +3.77805419e-02 -5.35184331e-02 +9.30523932e-01 -5.43044843e-02 -4.33777857e+00 -2.34986782e+00 +1.70691490e+00 -4.02275038e+00 -2.67289090e+00 +6.69776917e+00 +4.92385101e+00 -2.16406241e-01 +2.95924902e+00 -7.78684206e-03 +3.93325734e+00 -5.54484415e+00 -1.79426968e-02 +2.07899261e+00 +6.96587190e-02 -5.22631311e+00 +3.24881524e-02 +1.12606299e+00 -1.07145146e-01 -5.20586634e+00 -2.28642130e+00 +1.41731769e-01 -8.25613514e-02 -2.64818931e+00 -2.15450123e-01 -1.98647916e-01 -2.52551985e+00 -3.66585851e+00 +1.48297623e-02 -2.68074489e+00 +4.86932516e+00 +2.82776999e+00 -2.00206447e+00 -2.27608442e+00 -7.16118813e-02 +3.88427806e+00 -3.79013568e-01 +6.73455179e-01 +1.27468869e-01 -2.80743980e+00 +7.59280491e+00 -7.87907168e-02 -1.97224453e-01 +3.67519632e-02 -1.96999684e-01 +9.13955033e-01 -4.37460375e+00 -7.44758546e-01 +1.73491344e-01 +4.46727686e-02 -2.36114830e-01 +1.18795085e+00 -6.55993938e+00 +4.14487012e-02 -1.44961250e+00 +2.75342441e+00 +6.61849308e+00 +6.57122278e+00 -1.12559831e+00 -5.44294405e+00 +6.13199854e+00 -2.68130040e+00 -1.09896034e-01 -2.83912492e+00 -2.29274058e+00 +8.33930373e-01 -4.51504135e+00 +5.87407923e+00 -9.57763568e-02 +1.21613167e-01 +1.51591152e-01 +1.10361032e-01 -3.74575667e-02 +6.64285049e-02 -7.76789308e-01 +1.33381709e-01 -1.07423887e-01 -2.28891239e-01 +1.11274019e-01 -1.02889955e+00 +4.86332417e+00 +7.79708326e-01 -3.01120609e-01 -1.18328571e+00 +4.42409754e+00 +6.70789289e+00 -3.54640675e+00 +2.79925895e+00 +2.25261912e-01 -3.35311437e+00 -2.47941875e+00 -3.20477533e+00 +6.06553888e+00 +8.73310757e+00 +6.86415386e+00 +4.70016766e+00 -1.88171494e+00 -7.89346337e-01 +4.47519112e+00 -1.94216835e+00 +3.25644195e-01 +6.36595488e+00 -3.21546745e+00 -2.18949485e+00 -1.04345858e+00 +3.38970518e+00 -2.89658815e-01 +5.51223135e+00 -3.74827743e+00 -6.68178463e+00 -1.70748496e+00 +3.30051708e+00 +7.64392614e-01 +2.40424097e-01 -4.24810219e+00 -5.82768396e-02 +9.33258906e-02 -7.87648112e-02 +1.54412121e-01 +8.66549969e+00 -2.02248931e+00 +2.80501127e-01 -4.45136547e+00 -2.44017434e+00 +4.29128838e+00 +8.05393755e-02 +1.50203660e-01 -4.56624699e+00 -4.80453596e-02 -7.39474297e+00 +2.49395505e-01 -2.92208505e+00 +9.93184376e+00 -6.28288746e+00 -5.04226238e-02 +1.82865679e-01 -1.90741873e+00 +2.37172365e+00 -1.48267075e-02 -4.83389914e-01 +3.22101521e-03 -5.65781164e+00 -3.17863059e+00 -6.04725024e-03 -1.00975788e+00 +3.75937438e+00 -4.05470753e+00 +3.65899825e+00 -7.49659443e+00 -1.56304348e+00 -5.38570023e+00 +3.54518247e+00 -1.02491879e+00 -7.15371221e-03 -5.40446281e-01 -1.41570246e+00 +2.38859490e-01 +1.20065145e-01 +7.11410761e+00 -4.59095389e-01 +3.84058915e-02 +6.51525116e+00 -3.11368775e+00 +2.80286431e-01 -2.57329369e+00 -3.31457295e-02 +2.42509574e-01 -3.33088860e-02 +2.72109121e-01 -6.09548450e-01 -1.02746189e+00 +2.02274658e-02 -3.42677021e+00 +1.34271994e-01 -2.88790870e+00 -1.68325770e+00 +1.28865659e-01 +6.20809412e+00 -1.75919664e+00 -2.48766288e-01 +2.17614487e-01 -1.33118999e+00 +1.85162202e-01 -1.39924014e+00 +2.96122122e+00 -1.45792627e+00 -4.42846918e+00 -6.88301802e-01 +1.43407613e-01 +2.23608792e-01 -2.34905076e+00 +2.02212408e-02 +3.97664714e+00 +4.18157339e+00 +3.40004992e+00 +2.69753814e-01 +1.17163844e-01 -3.25229257e-01 +8.01675320e-02 +2.07934812e-01 -5.45169353e-01 -2.11089607e-02 -1.31226212e-01 +3.35411930e+00 -5.34318089e-01 -3.19710076e-01 -4.30663490e+00 -2.78399169e-01 +1.54959530e-01 -1.63053739e+00 +5.61915040e-02 +2.35881495e+00 -5.66710043e+00 -1.25982177e+00 +1.11307657e+00 -4.84667540e+00 +6.02761364e+00 +2.84002781e+00 +8.27631801e-02 -4.49957752e+00 +8.02112222e-02 -5.53623629e+00 -4.06283665e+00 -2.60073785e-02 +9.91086864e+00 -4.32657935e-02 -3.75969619e-01 -2.98702955e-01 -1.02147233e+00 +2.39332020e-01 +3.58355069e+00 -4.16437101e+00 -2.10416317e-01 +1.88529313e-01 -3.53249550e+00 +1.12749629e-01 +1.92324758e-01 -3.09362888e+00 -2.56392169e+00 -2.16355212e-02 +2.91932201e+00 +8.82810295e-01 -1.61551726e+00 +3.55504632e+00 -3.30127716e+00 +2.18745425e-01 +4.67178440e+00 +6.25959015e+00 -8.51754904e-01 -7.82116055e-02 -3.31628251e+00 +6.35643768e+00 -2.09524488e+00 +2.12101087e-01 +1.11385204e-01 +9.04905573e-02 -2.02401257e+00 -3.23978758e+00 -5.02615356e+00 -4.41912860e-01 +4.56576841e-03 +2.76239872e-01 -2.20310497e+00 -2.48433542e+00 +1.06068276e-01 +1.80740058e+00 +3.57101750e+00 -1.08875716e+00 -1.59990752e+00 +7.97245741e-01 +1.84356999e+00 +1.46191370e+00 -1.58870924e+00 +1.58387303e+00 -4.18306023e-01 -1.80264902e+00 -6.20169453e-02 +8.52817535e-01 +6.08713031e-01 -6.41375408e-02 -1.46425322e-01 -3.44779529e-02 -1.91221744e-01 +1.40124649e-01 -5.56742698e-02 +2.90441439e-02 -8.05607662e-02 -2.80384980e-02 -2.91115977e-02 -2.44614691e-03 -2.57067889e-01 -1.12416124e+00 -5.10646820e-01 +4.28328961e-01 -2.88320661e-01 +7.75249767e+00 -2.18228221e+00 +3.60049820e+00 -2.10688591e+00 -2.07513005e-01 -2.28355312e+00 +1.96514356e+00 -4.79587746e+00 +1.32730985e+00 +2.81972617e-01 +1.91881049e+00 -1.45419431e+00 -2.37356424e-01 +2.25164965e-01 -1.89931512e+00 +4.87979501e-01 -9.62803315e-04 +2.56788683e+00 -6.48941994e-01 +5.14129937e-01 +5.89555539e-02 +2.62820625e+00 +3.36834621e+00 -2.69737077e+00 -2.31697416e+00 +3.93942863e-01 +8.91763568e-01 -2.18624687e+00 +5.26801825e-01 +3.33305821e-02 +9.68008637e-01 -2.34983172e-02 +1.07964445e-02 +1.00791119e-02 +2.23705582e-02 -5.15256548e+00 -5.03885210e-01 +2.11972430e-01 -4.49588537e-01 +5.17773724e+00 +2.85526943e+00 -2.05523875e-02 -5.91273233e-03 +6.74162388e+00 +1.31859615e-01 +1.17354941e+00 -1.55608550e-01 -8.92949700e-01 -1.09402263e+00 +8.46833348e-01 -1.67887926e-01 -1.72491565e-01 -2.13835761e-01 -1.19569802e+00 +5.24567477e-02 -9.36151072e-02 +4.37825434e-02 -1.18241024e+00 -1.58306015e+00 -1.83947161e-01 +1.21262014e+00 -1.39304769e+00 -3.11010456e+00 +5.37433195e+00 -1.89149356e+00 +9.13643301e-01 -4.19437456e+00 +7.71017122e+00 +2.03640914e+00 -9.47831869e-02 -2.30239248e+00 +1.44732401e-01 -1.63628310e-02 -9.13751125e-02 +2.37468386e+00 +1.63480356e-01 -1.77541852e-01 -7.34313548e-01 -1.42188489e+00 -1.34366944e-01 -7.21512377e-01 -5.15509024e-02 +1.99786618e-01 -8.79584104e-02 +3.83191854e-02 +5.98947942e-01 -8.89715329e-02 -1.87133282e-01 -3.32584286e+00 -1.53081447e-01 -1.69161010e+00 -1.31061113e+00 -1.89969435e-01 +1.87335920e+00 -1.29051507e+00 +8.88783783e-02 -1.80355594e-01 +2.88223743e-01 -8.97651687e-02 -6.13547623e-01 -9.17787254e-01 -7.63715386e-01 -1.06605494e+00 -8.98207426e-02 +7.21925078e-03 -4.23282534e-02 -2.14211106e+00 -1.42954430e-02 -3.61012459e+00 -1.13346088e+00 +2.03324103e+00 +6.90356120e-02 +5.86434342e-02 +1.39178708e-01 -8.06536376e-02 +7.06902370e-02 +6.28630221e-02 -2.04350889e-01 +4.54832427e-02 +8.24354589e-01 +7.26140499e-01 +2.93072555e-02 -1.12255418e+00 -9.19649825e-02 -1.12603754e-01 -2.82329798e-01 -4.21124995e-02 +7.41712809e-01 -4.19668961e+00 +4.41321805e-02 -1.29854512e+00 +1.97143719e-01 +9.01680052e-01 -1.75214577e+00 +8.86497125e-02 -1.52720881e+00 -7.39245713e-02 +1.17419100e+00 -1.86441851e+00 +1.26350001e-02 +5.44626474e+00 -6.60648942e-02 +2.21643949e+00 +3.13156843e-01 +2.43286699e-01 -1.06255256e-01 -2.13838935e+00 +2.29718947e+00 +1.90870285e-01 -1.54240772e-01 +1.04716122e+00 -6.10354356e-02 -1.78874731e-01 -6.24734342e-01 -1.08996773e+00 -1.38875827e-01 -1.71848261e+00 +4.29006720e+00 +1.90603793e-01 -1.36518085e+00 +3.09384894e+00 +8.81646276e-02 -1.96578884e+00 -3.73366928e+00 -1.86024830e-01 -9.61158499e-02 -1.04392195e+00 -2.76283574e+00 -1.45608008e+00 +5.73039129e-02 -1.45106763e-02 -3.54440100e-02 +8.18749219e-02 -2.09374404e+00 +1.62941265e+00 +3.30719024e-01 -1.57214269e-01 -1.30210787e-01 -2.08907411e-01 +4.11308432e+00 -1.85763448e-01 +6.36100578e+00 -9.28023309e-02 -3.53417087e+00 +1.47579575e+00 +1.80478072e+00 +4.13687086e+00 -6.23317719e-01 -1.73477578e+00 +1.09659088e+00 +3.10669827e+00 +3.43499660e+00 +4.16272926e+00 +4.45878172e+00 -3.39398170e+00 -2.16904934e-03 +1.97752869e+00 -1.45836011e-01 -6.48939237e-02 +1.62271425e-01 -1.09060608e-01 +5.18269897e-01 +4.82618250e-02 +1.50359413e-02 +2.58029431e-01 +8.54094177e-02 +1.26454961e+00 -4.55188370e+00 +1.17415488e+00 +9.47845578e-01 +1.77250300e-02 +3.47956920e+00 -5.49918473e-01 -5.25636625e+00 +2.88612604e+00 +8.08861628e-02 -3.15219760e+00 +9.16042984e-01 +5.27960587e+00 -9.94196594e-01 +1.75366536e-01 +4.49445343e+00 -3.06582832e+00 +7.63305008e-01 +6.26106501e-01 +2.61854506e+00 -7.30200559e-02 -2.55047828e-01 -5.28130388e+00 +4.22255367e-01 +2.22592807e+00 +2.98574114e+00 -2.80148935e+00 -3.47228408e+00 -5.38432932e+00 +3.51465631e+00 -2.83939052e+00 +7.42389500e-01 +4.58299255e+00 +1.51282763e+00 +1.45481266e-02 +2.20715022e+00 -1.73901469e-01 +8.26078579e-02 -2.48224698e-02 -7.67407268e-02 +5.17847443e+00 +2.25984621e+00 -1.35294020e-01 -3.11252403e+00 -4.55970812e+00 +4.02306604e+00 +9.51730162e-02 -2.46897101e-01 -4.32924366e+00 +1.27419218e-01 -1.30642343e+00 +3.14275585e-02 +2.89158607e+00 +4.62676287e+00 -4.26973057e+00 -5.83076440e-02 +6.33242656e-04 +1.41467094e+00 -4.00175714e+00 +2.15664133e-01 +3.25874209e-01 +2.91147865e-02 +1.73102200e+00 +2.66784549e+00 +1.66704617e-02 -1.35812938e-01 -3.72666502e+00 -4.60452938e+00 -2.79597521e+00 +8.66773784e-01 +2.05709481e+00 -2.48761559e+00 -6.77936411e+00 +3.07221842e+00 +2.08640069e-01 -2.07164216e+00 +9.31209207e-01 +5.69640053e-03 -5.02301427e-03 +4.05527210e+00 +1.37895957e-01 +5.27240261e-02 +5.08896065e+00 +2.24400640e+00 -3.30346487e-02 +2.88629365e+00 -4.84097935e-02 +2.89624840e-01 +9.21386927e-02 -1.85027421e-01 +8.47200990e-01 +8.98796201e-01 -8.59204903e-02 -3.87846947e+00 +8.24049115e-02 -2.97697783e+00 -3.77792549e+00 -6.96109608e-02 -8.19469690e-01 -2.44215178e+00 +4.44980443e-01 +4.96625751e-02 +4.57236260e-01 -2.29574233e-01 +2.50298929e+00 +2.16060305e+00 -2.79327488e+00 -3.66059995e+00 +4.99403834e-01 +1.45595642e-02 -1.82793140e-01 +3.87212873e+00 -2.21774250e-01 -3.84525776e+00 -4.15828276e+00 -4.14137030e+00 +1.50209302e-02 -3.28726657e-02 -7.15514868e-02 -2.01685429e-02 -3.97607125e-02 +7.00493634e-01 +3.50168675e-01 -6.57414943e-02 -2.15598845e+00 +4.35899496e-01 +5.16565919e-01 -5.46661091e+00 +8.84145200e-01 +2.81515252e-02 +2.08930230e+00 -7.65583068e-02 -4.38178349e+00 -1.57024300e+00 +1.05956697e+00 -4.58343887e+00 -6.10553503e-01 +2.34900045e+00 -3.23281908e+00 +2.84843240e-02 +2.81065822e+00 -1.22081995e-01 +1.13691235e+00 +4.41185665e+00 -1.05436377e-01 +1.38126433e-01 +3.06615550e-02 -5.18236494e+00 +8.10643435e-02 +9.74767864e-01 -1.09446637e-01 -4.50498533e+00 +2.68400979e+00 +5.20171896e-02 -1.65238738e-01 -4.38530684e+00 -1.11435458e-01 -2.46699415e-02 +2.48920989e+00 -5.42624569e+00 -7.94661567e-02 -3.35273814e+00 -3.94171023e+00 +3.22790885e+00 +1.84842253e+00 +4.99368668e+00 -1.17078401e-01 +9.44079459e-01 +4.86217546e+00 +8.35317433e-01 -1.09157048e-01 +2.79924917e+00 +8.69612023e-02 +2.56382942e+00 -9.46286395e-02 -1.78227499e-01 -4.46378887e-02 +1.06629288e+00 -1.95618522e+00 -2.32153797e+00 +5.80923796e-01 -1.28616720e-01 +2.60825222e-03 +3.89618063e+00 -1.56830835e+00 +1.62479863e-01 -3.04142141e+00 +7.54539251e+00 -4.64084327e-01 -1.35039055e+00 +9.35718834e-01 -5.45411587e-01 +1.87927902e+00 -1.51721609e+00 +1.67678404e+00 -4.58701283e-01 -2.36890721e+00 -1.39002132e+00 +1.74541843e+00 +1.73852384e+00 -1.11112520e-01 -2.77879786e+00 -2.34614298e-01 -1.67254195e-01 +1.94625169e-01 -2.02865928e-01 +2.05175549e-01 -4.24829349e-02 +1.76484622e-02 -3.76738631e-03 -1.18584275e-01 +3.28348368e-01 +2.11986423e+00 -6.90840244e-01 +6.29186690e-01 -7.00091198e-02 -2.60872006e+00 +1.76176503e-01 +3.35950971e+00 +9.71125960e-01 -1.29530072e-01 -1.51681197e+00 -6.28642797e-01 +1.22106278e+00 -2.94831300e+00 +1.70896709e+00 +1.18854249e+00 +2.50531650e+00 -2.17541814e-01 -5.73406480e-02 -1.11846471e+00 +2.13081121e+00 -3.37976366e-02 +1.47865677e+00 +5.24186730e-01 +6.17474794e-01 -3.66995841e-01 -7.29510128e-01 +3.47400022e+00 +1.47362709e-01 -1.96847546e+00 -1.22093916e+00 +1.24482858e+00 -2.49341154e+00 +1.36732173e+00 -1.76748946e-01 -1.34628427e+00 +2.96370704e-02 -1.04737036e-01 +3.16334481e-04 -2.55355924e-01 -1.44686437e+00 -3.72097254e+00 +5.19309230e-02 -1.71295738e+00 +3.30159098e-01 +1.87398541e+00 +5.47132902e-02 -5.27692027e-02 +1.88653481e+00 -2.08755687e-01 -3.07803750e+00 +2.79779471e-02 -4.52956498e-01 +2.28022790e+00 +3.65636736e-01 -1.79294512e-01 -2.10094362e-01 +3.53588432e-01 -1.77115965e+00 -9.01407674e-02 +2.76712477e-01 -1.90138534e-01 -2.45460725e+00 -5.74586511e-01 -1.13618754e-01 +1.29857540e+00 +3.29644942e+00 +3.05687976e+00 -1.59618187e+00 -2.68362761e+00 +1.78677344e+00 +1.94961846e+00 +7.52166927e-01 -1.14642978e+00 +3.73156108e-02 -8.32191408e-01 +6.20421350e-01 -2.41494790e-01 -1.60023764e-01 -6.75379753e-01 +5.01438498e-01 +1.93783045e-01 -2.20772934e+00 -1.18645024e+00 -9.31022912e-02 -8.91875625e-01 -1.30307943e-01 +2.12095588e-01 -1.25561833e-01 -9.54185147e-03 -7.67352819e-01 +7.62765646e-01 -1.61883280e-01 +1.76894709e-01 -1.95921198e-01 -1.94212389e+00 +4.13076878e+00 -1.03198066e-01 +1.21670330e+00 -1.22180891e+00 +2.75217682e-01 -2.18707711e-01 -1.15027167e-01 -8.61531822e-04 +1.22099303e-01 -1.00647128e+00 +3.81903142e-01 -1.68308580e+00 +2.91004237e-02 -1.41724095e-01 -3.35738808e-02 +1.73485979e-01 -3.91050279e-02 +3.61601734e+00 +1.35765421e+00 +1.67795324e+00 -1.19055524e-01 +2.42076237e-02 +1.16094708e-01 -1.10310070e-01 +1.15215778e-01 -6.41261414e-02 -2.62822092e-01 -2.46462196e-01 +1.04866743e+00 +5.44263959e-01 +1.76868707e-01 +4.26185876e-01 -1.28513098e-01 -1.08385473e-01 -1.05785203e+00 -2.34260097e-01 +1.52370942e+00 -2.95315361e+00 +1.34147274e+00 +1.01212811e+00 +2.19655776e+00 +7.45448053e-01 -2.06216526e+00 -7.09839687e-02 -1.94579768e+00 -2.63570510e-02 -1.86227918e+00 +9.41707268e-02 -2.09915917e-02 +3.55512619e-01 -3.24183144e-02 +4.57445431e+00 +4.41556871e-01 +1.28331935e+00 -2.21398957e-02 +2.34924412e+00 -1.80976605e+00 +7.69288652e-03 -6.19006082e-02 -5.90901256e-01 -2.19826996e-01 -1.05991326e-01 -4.66494799e-01 -1.57046807e+00 -3.23620856e-01 -1.71366715e+00 +3.88829923e+00 -7.80346930e-01 +1.44532740e+00 -6.19462550e-01 -9.32772085e-02 -1.08403158e+00 -1.02288119e-01 -2.05561146e-01 -1.99423105e-01 -1.95967817e+00 -1.90380239e+00 -9.14093435e-01 -1.79477349e-01 -3.04334670e-01 +6.92574009e-02 +3.71243030e-01 -8.02582502e-01 -4.19425994e-01 +1.43555790e-01 -1.63996562e-01 -1.07117333e-01 +2.92760164e-01 +1.91385114e+00 +8.56172591e-02 +6.66673854e-02 +7.15683699e-01 
#Parameter# /_2 {211} 3377 ZERO_GRAD
-4.62846816e-01 +1.61798143e+00 +2.28216290e+00 -1.90702403e+00 +1.92301285e+00 -2.29850197e+00 +2.04195166e+00 +6.05936766e-01 -2.31601882e+00 +3.50438416e-01 -1.24298012e+00 -1.79446936e+00 -1.03444465e-01 +2.42586732e+00 -1.32787675e-01 -1.45738758e-02 +3.05604786e-01 -3.01524132e-01 +5.77183068e-01 -7.50942156e-02 +7.48718828e-02 +3.12952399e-01 -2.18461841e-01 +2.44783431e-01 -3.17656446e+00 +3.45063478e-01 +1.04388189e+00 +1.30133808e+00 +8.26369572e+00 -1.10891783e+00 -2.84441090e+00 +7.55099803e-02 -2.42536142e-01 -6.02810681e-01 -7.39190280e-01 -4.70439196e+00 -1.54753101e+00 -3.01976037e+00 +6.48701906e+00 +8.58265209e+00 +1.95934296e+00 +9.31833506e-01 -1.46922791e+00 +3.29400277e+00 -2.38834634e-01 -7.99687877e-02 -9.04968262e-01 +1.32024801e+00 +4.94231433e-01 -1.73794195e-01 -9.29586124e-03 -8.81953716e-01 -1.70252800e+00 +1.47126901e+00 +1.66265690e+00 +3.42851341e-01 +1.26548147e+00 -2.94575632e-01 -2.53641844e+00 -1.17889874e-01 -1.90902293e-01 -1.88502595e-01 -1.22193731e-01 -2.85611606e+00 +2.10215282e+00 -6.88473582e-02 -9.62629855e-01 -1.34728086e+00 -2.84315920e+00 -1.40033975e-01 -2.66129404e-01 -1.67146337e+00 -1.08951867e-01 -2.13743782e+00 -2.97182947e-01 +1.52661204e-01 +8.37761974e+00 -2.43033695e+00 -1.38540134e-01 -2.53643155e-01 +1.54560006e+00 -2.87322760e-01 +4.13062684e-02 +2.15420365e-01 +9.23441127e-02 +2.86776757e+00 +4.56998013e-02 +5.45494333e-02 +2.11339569e+00 +7.61940479e+00 -2.78271437e+00 +7.38513589e-01 +2.45480967e+00 +1.90696394e+00 -3.22512698e+00 -4.66332579e+00 +5.91822684e-01 +1.32067561e-01 +1.99426317e+00 +1.35620654e+00 -5.05382381e-02 -2.31768683e-01 -2.32867503e+00 +3.95192981e-01 +2.05075979e-01 -1.29383981e+00 -8.71076882e-01 -3.51902246e-01 +1.04332006e+00 -1.52388766e-01 +3.99639457e-01 -1.80801705e-01 -2.67473429e-01 +1.56172526e+00 +1.61919367e+00 -1.82592198e-01 -1.00568151e+00 -2.08228350e-01 -4.33844566e+00 +7.80326724e-01 -2.57835746e-01 +3.83319497e-01 -1.37197578e+00 +3.15017909e-01 -1.48552299e-01 +1.71725261e+00 -3.27621162e-01 +1.00096375e-01 -5.11018157e-01 -5.91952741e-01 -1.73430932e+00 +5.01610279e-01 -1.06189966e-01 -2.32893482e-01 -2.90451717e+00 -2.82158911e-01 -3.16801596e+00 -3.91111326e+00 -2.39334178e+00 -2.21506193e-01 -8.46488867e-03 +5.31416982e-02 -2.54707158e-01 -1.16303258e-01 +1.06636882e+00 +1.39087200e-01 +2.78931558e-01 -1.06529391e+00 +8.42555642e-01 +4.96595770e-01 -3.56509471e+00 +1.33345389e+00 -1.90550089e-01 +8.13067496e-01 -1.32375464e-01 -1.91449463e-01 -7.86306202e-01 +1.71585417e+00 +3.49710512e+00 +5.99220455e-01 -5.77481651e+00 -5.21736503e-01 -2.03253791e-01 +2.12380981e+00 -3.99942696e-02 -9.98053670e-01 -3.15264893e+00 -4.52958196e-02 +9.81327534e+00 -1.55743182e-01 +1.29796636e+00 +6.11052454e-01 +1.04579318e+00 -2.77003109e-01 +2.74844813e+00 -8.92126262e-01 +9.95969772e-02 -2.77436376e-01 +2.23928499e+00 -3.34010780e-01 -2.27815405e-01 +1.63209796e+00 -1.25539884e-01 -1.70672029e-01 +1.69177330e+00 +3.47382736e+00 -2.85540676e+00 -1.09627974e+00 -3.25728083e+00 -2.16678634e-01 -5.73441505e-01 -2.56456804e+00 +9.94885862e-01 -6.34882525e-02 -1.81111884e+00 +2.09237647e+00 -8.36107969e-01 -2.09257469e-01 -2.50577688e-01 -1.77988634e-01 +2.23830748e+00 -2.87396812e+00 +8.36675882e-01 +1.02330983e+00 -2.23941281e-01 -3.47781837e-01 +2.04706478e+00 -4.49007940e+00 -5.34883095e-03 -2.61819124e+00 -1.71838689e+00 
#LookupParameter# /_0 {12,211} 40513 ZERO_GRAD
